# RA Dec WINGS Cluster SB  eps  pa Mtype Bar weight  z  logsSFR logM Mv BV r200 logM200 D rp
10.771 -9.8528595 J004305.04-095110.3 A85 20.634000778198242 0.25599998235702515 77.0 1.2000000476837158 1.0 2.386817216873169 0.050850000232458115 -9.893200874328613 9.204038619995117 -17.8799991607666 0.7429981231689453 2.0199999809265137 14.994989395141602 2.6197893619537354 1.29692542552948
10.771 -9.8528595 J004305.04-095110.3 A85 20.634000778198242 0.25599998235702515 77.0 1.2000000476837158 1.0 2.386817216873169 0.050850000232458115 -9.893200874328613 9.204038619995117 -17.8799991607666 0.7429981231689453 2.0199999809265137 14.994989395141602 2.6197893619537354 1.29692542552948
10.618215 -9.82731 J004228.37-094938.3 A85 20.523000717163086 0.3019999861717224 37.29999923706055 -1.899999976158142 0.0 1.8900305032730103 0.0500200018286705 -9.614898681640625 9.455241203308105 -18.674997329711914 0.7299976348876953 2.0199999809265137 14.994989395141602 2.2762012481689453 1.126832365989685
10.591209 -9.822953 J004221.89-094922.6 A85 20.94099998474121 0.04500001668930054 84.4000015258789 1.2000000476837158 1.0 1.8900305032730103 0.057750001549720764 -11.304540634155273 9.706156730651855 -18.520998001098633 0.8329963684082031 2.0199999809265137 14.994989395141602 2.2295098304748535 1.1037178039550781
10.668024 -9.737975 J004240.33-094416.7 A85 19.881999969482422 0.2720000147819519 114.80000305175781 0.0 1.0 1.5823510885238647 0.05623000115156174 -11.628267288208008 10.126848220825195 -19.82699966430664 0.6829986572265625 2.0199999809265137 14.994989395141602 2.0010931491851807 0.9906402230262756
10.877009 -9.733168 J004330.48-094359.4 A85 19.115999221801758 0.07099997997283936 76.69999694824219 -1.100000023841858 0.0 1.9982655048370361 0.05057999864220619 -11.308147430419922 10.265412330627441 -20.089000701904297 0.48600006103515625 2.0199999809265137 14.994989395141602 2.47635817527771 1.2259199619293213
10.114701 -9.720117 J004027.53-094312.4 A85 18.989999771118164 0.05199998617172241 74.0 -2.0 1.0 1.5823510885238647 0.05779999867081642 -11.661005020141602 10.856414794921875 -20.854999542236328 0.8700008392333984 2.0199999809265137 14.994989395141602 2.2410922050476074 1.1094515323638916
10.5422 -9.665751 J004210.13-093956.7 A85 20.94700050354004 0.17400002479553223 78.0 -2.299999952316284 0.0 1.675041913986206 0.05519000068306923 -11.379034996032715 9.751174926757812 -18.689998626708984 1.0359973907470703 2.0199999809265137 14.994989395141602 1.5465097427368164 0.7655988931655884
10.798296 -9.637815 J004311.59-093816.1 A85 18.812000274658203 0.05699998140335083 29.0 1.7000000476837158 1.0 1.5649452209472656 0.05420000106096268 -12.25287914276123 10.793692588806152 -21.514999389648438 0.7089986801147461 2.0199999809265137 14.994989395141602 1.9668118953704834 0.9736692905426025
10.577002 -9.653471 J004218.48-093912.5 A85 20.582000732421875 0.4049999713897705 102.5999984741211 3.0999999046325684 1.0 1.675041913986206 0.0514100007712841 -10.151848793029785 9.777643203735352 -19.08700180053711 0.7010021209716797 2.0199999809265137 14.994989395141602 1.5351651906967163 0.7599827647209167
10.47264 -9.64604 J004153.43-093845.7 A85 21.400999069213867 0.26999998092651367 150.89999389648438 1.100000023841858 0.0 2.0229973793029785 0.05386999994516373 -9.53660774230957 9.094918251037598 -18.358001708984375 0.7200050354003906 2.0199999809265137 14.994989395141602 1.4282350540161133 0.7070470452308655
10.47264 -9.64604 J004153.43-093845.7 A85 21.400999069213867 0.26999998092651367 150.89999389648438 1.100000023841858 0.0 2.0229973793029785 0.05386999994516373 -9.53660774230957 9.094918251037598 -18.358001708984375 0.7200050354003906 2.0199999809265137 14.994989395141602 1.4282350540161133 0.7070470452308655
10.783769 -9.57905 J004308.10-093444.6 A85 21.197999954223633 0.11900001764297485 57.400001525878906 2.5 1.0 1.675041913986206 0.0500200018286705 -12.480457305908203 9.871962547302246 -19.30099868774414 0.6209983825683594 2.0199999809265137 14.994989395141602 1.7563902139663696 0.8695001006126404
10.454516 -9.483972 J004149.11-092902.6 A85 19.351999282836914 0.3920000195503235 145.6999969482422 -2.0 1.0 1.692047357559204 0.06145000085234642 -11.621513366699219 10.219755172729492 -19.9320011138916 0.9120006561279297 2.0199999809265137 14.994989395141602 0.7531246542930603 0.3728339970111847
10.435114 -9.440349 J004144.42-092624.7 A85 20.788000106811523 0.39899998903274536 71.30000305175781 -0.30000001192092896 0.0 1.692047357559204 0.058820001780986786 -11.481911659240723 10.292325019836426 -19.970998764038086 0.6069984436035156 2.0199999809265137 14.994989395141602 0.5803751945495605 0.28731444478034973
9.996282 -9.434437 J003959.11-092604.0 A85 20.667999267578125 0.43199998140335083 142.60000610351562 0.4000000059604645 1.0 1.5649452209472656 0.056460000574588776 -11.321454048156738 9.671823501586914 -19.53000259399414 0.6080036163330078 2.0199999809265137 14.994989395141602 1.9815455675125122 0.9809631705284119
10.414258 -9.414552 J004139.42-092452.5 A85 19.452999114990234 0.11000001430511475 55.099998474121094 -0.30000001192092896 1.0 1.710866928100586 0.05996999889612198 -12.155349731445312 10.785909652709961 -20.646997451782227 0.9249973297119141 2.0199999809265137 14.994989395141602 0.5005944967269897 0.24781906604766846
10.579993 -9.3876915 J004219.20-092315.7 A85 19.94700050354004 0.06499999761581421 123.19999694824219 -1.0 1.0 1.710866928100586 0.05816999822854996 -12.416698455810547 10.581083297729492 -20.52299690246582 0.8649978637695312 2.0199999809265137 14.994989395141602 0.6052781939506531 0.2996426820755005
10.1645155 -9.369285 J004039.46-092209.3 A85 21.426000595092773 0.34299999475479126 120.80000305175781 1.7999999523162842 0.0 2.0435354709625244 0.04843999817967415 -12.767993927001953 9.99036979675293 -18.463001251220703 0.8690013885498047 2.0199999809265137 14.994989395141602 1.244757056236267 0.6162163615226746
10.1645155 -9.369285 J004039.46-092209.3 A85 21.426000595092773 0.34299999475479126 120.80000305175781 1.7999999523162842 0.0 2.0435354709625244 0.04843999817967415 -12.767993927001953 9.99036979675293 -18.463001251220703 0.8690013885498047 2.0199999809265137 14.994989395141602 1.244757056236267 0.6162163615226746
10.583163 -9.3551035 J004219.95-092118.6 A85 19.297000885009766 0.16500002145767212 116.9000015258789 -3.9000000953674316 1.0 1.692047357559204 0.05663999915122986 -12.853796005249023 10.650774002075195 -20.186002731323242 0.96600341796875 2.0199999809265137 14.994989395141602 0.5497872233390808 0.27217188477516174
10.301343 -9.34316 J004112.33-092035.6 A85 20.25200080871582 0.31300002336502075 150.8000030517578 -4.0 0.0 1.692047357559204 0.056049998849630356 -12.325998306274414 9.987159729003906 -19.06100082397461 0.9060001373291016 2.0199999809265137 14.994989395141602 0.6730059385299683 0.3331712484359741
10.45673 -9.295426 J004149.62-091743.1 A85 20.04400062561035 0.20899999141693115 52.20000076293945 2.200000047683716 1.0 1.710866928100586 0.05017000064253807 -12.046502113342285 10.61959457397461 -20.29100227355957 0.9210014343261719 2.0199999809265137 14.994989395141602 0.03479400649666786 0.017224755138158798
10.523797 -9.239051 J004205.72-091420.8 A85 20.743999481201172 0.17100000381469727 48.599998474121094 -3.5999999046325684 0.0 2.0435354709625244 0.057089999318122864 -13.285468101501465 9.807195663452148 -18.375 0.7440032958984375 2.0199999809265137 14.994989395141602 0.37353038787841797 0.18491603434085846
10.523797 -9.239051 J004205.72-091420.8 A85 20.743999481201172 0.17100000381469727 48.599998474121094 -3.5999999046325684 0.0 2.0435354709625244 0.057089999318122864 -13.285468101501465 9.807195663452148 -18.375 0.7440032958984375 2.0199999809265137 14.994989395141602 0.37353038787841797 0.18491603434085846
10.418091 -9.171658 J004140.35-091018.2 A85 19.822999954223633 0.18400001525878906 54.900001525878906 -0.5 0.0 1.692047357559204 0.05479000136256218 -11.560648918151855 10.215108871459961 -19.7289981842041 0.8660011291503906 2.0199999809265137 14.994989395141602 0.5736255049705505 0.2839730381965637
10.303777 -9.150096 J004112.89-090900.4 A85 18.448999404907227 0.13200002908706665 99.5999984741211 -4.0 1.0 1.710866928100586 0.0530799999833107 -11.688081741333008 10.996612548828125 -20.836997985839844 0.9879970550537109 2.0199999809265137 14.994989395141602 0.9044011831283569 0.4477233588695526
10.199409 -9.113285 J004047.86-090647.8 A85 20.610000610351562 0.296999990940094 1.7999999523162842 -2.299999952316284 1.0 2.0435354709625244 0.05522000044584274 -9.031333923339844 8.867171287536621 -18.112998962402344 0.5160026550292969 2.0199999809265137 14.994989395141602 1.3308347463607788 0.6588290333747864
10.199409 -9.113285 J004047.86-090647.8 A85 20.610000610351562 0.296999990940094 1.7999999523162842 -2.299999952316284 1.0 2.0435354709625244 0.05522000044584274 -9.031333923339844 8.867171287536621 -18.112998962402344 0.5160026550292969 2.0199999809265137 14.994989395141602 1.3308347463607788 0.6588290333747864
10.605607 -9.106165 J004225.34-090622.1 A85 21.179000854492188 0.43699997663497925 124.19999694824219 -1.2000000476837158 0.0 7.761685848236084 0.05352000147104263 -11.174190521240234 9.540555000305176 -17.972000122070312 0.63800048828125 2.0199999809265137 14.994989395141602 1.0145037174224854 0.5022295713424683
10.605607 -9.106165 J004225.34-090622.1 A85 21.179000854492188 0.43699997663497925 124.19999694824219 -1.2000000476837158 0.0 7.761685848236084 0.05352000147104263 -11.174190521240234 9.540555000305176 -17.972000122070312 0.63800048828125 2.0199999809265137 14.994989395141602 1.0145037174224854 0.5022295713424683
10.605607 -9.106165 J004225.34-090622.1 A85 21.179000854492188 0.43699997663497925 124.19999694824219 -1.2000000476837158 0.0 7.761685848236084 0.05352000147104263 -11.174190521240234 9.540555000305176 -17.972000122070312 0.63800048828125 2.0199999809265137 14.994989395141602 1.0145037174224854 0.5022295713424683
10.605607 -9.106165 J004225.34-090622.1 A85 21.179000854492188 0.43699997663497925 124.19999694824219 -1.2000000476837158 0.0 7.761685848236084 0.05352000147104263 -11.174190521240234 9.540555000305176 -17.972000122070312 0.63800048828125 2.0199999809265137 14.994989395141602 1.0145037174224854 0.5022295713424683
10.605607 -9.106165 J004225.34-090622.1 A85 21.179000854492188 0.43699997663497925 124.19999694824219 -1.2000000476837158 0.0 7.761685848236084 0.05352000147104263 -11.174190521240234 9.540555000305176 -17.972000122070312 0.63800048828125 2.0199999809265137 14.994989395141602 1.0145037174224854 0.5022295713424683
10.605607 -9.106165 J004225.34-090622.1 A85 21.179000854492188 0.43699997663497925 124.19999694824219 -1.2000000476837158 0.0 7.761685848236084 0.05352000147104263 -11.174190521240234 9.540555000305176 -17.972000122070312 0.63800048828125 2.0199999809265137 14.994989395141602 1.0145037174224854 0.5022295713424683
10.605607 -9.106165 J004225.34-090622.1 A85 21.179000854492188 0.43699997663497925 124.19999694824219 -1.2000000476837158 0.0 7.761685848236084 0.05352000147104263 -11.174190521240234 9.540555000305176 -17.972000122070312 0.63800048828125 2.0199999809265137 14.994989395141602 1.0145037174224854 0.5022295713424683
10.3954525 -9.013136 J004134.91-090047.3 A85 19.784000396728516 0.07099997997283936 145.89999389648438 -1.399999976158142 0.0 1.710866928100586 0.058639999479055405 -11.958876609802246 10.7171630859375 -20.39900016784668 0.8689994812011719 2.0199999809265137 14.994989395141602 1.2356963157653809 0.6117308139801025
10.391244 -8.932323 J004133.90-085556.4 A85 19.641000747680664 0.2239999771118164 87.69999694824219 0.6000000238418579 1.0 1.6936722993850708 0.05638999864459038 -13.928901672363281 10.657946586608887 -20.554000854492188 0.9470024108886719 2.0199999809265137 14.994989395141602 1.5688986778259277 0.7766824960708618
10.744403 -8.918203 J004258.66-085505.5 A85 21.0939998626709 0.07999998331069946 103.5999984741211 -0.8999999761581421 0.0 1.8900305032730103 0.059939999133348465 -11.272293090820312 9.708911895751953 -18.92099952697754 0.6949977874755859 2.0199999809265137 14.994989395141602 1.982723355293274 0.9815462231636047
10.07783 -8.882448 J004018.68-085256.8 A85 19.01099967956543 0.2459999918937683 168.1999969482422 2.200000047683716 1.0 1.9762846231460571 0.059780001640319824 -11.936263084411621 11.472156524658203 -21.909000396728516 0.9650020599365234 2.0199999809265137 14.994989395141602 2.3522567749023438 1.1644835472106934
10.278698 -8.7725 J004106.89-084621.0 A85 20.29400062561035 0.15299999713897705 153.39999389648438 -4.599999904632568 0.0 2.386817216873169 0.05745000019669533 -10.395119667053223 10.004996299743652 -18.691003799438477 0.9630012512207031 2.0199999809265137 14.994989395141602 2.3308167457580566 1.15386962890625
10.278698 -8.7725 J004106.89-084621.0 A85 20.29400062561035 0.15299999713897705 153.39999389648438 -4.599999904632568 0.0 2.386817216873169 0.05745000019669533 -10.395119667053223 10.004996299743652 -18.691003799438477 0.9630012512207031 2.0199999809265137 14.994989395141602 2.3308167457580566 1.15386962890625
9.93761 -8.856559 J003945.03-085123.6 A85 20.437999725341797 0.0989999771118164 69.30000305175781 -0.800000011920929 0.0 1.7793594598770142 0.057360000908374786 -10.976401329040527 9.888602256774902 -18.892000198364258 0.7020034790039062 2.0199999809265137 14.994989395141602 2.839897871017456 1.4058901071548462
10.143299 -8.834917 J004034.39-085005.7 A85 18.860000610351562 0.15299999713897705 65.5999984741211 -4.0 1.0 1.9982655048370361 0.057029999792575836 -12.638287544250488 10.56484317779541 -20.36699867248535 0.9429969787597656 2.0199999809265137 14.994989395141602 2.343529462814331 1.1601630449295044
10.259648 -8.854491 J004102.31-085116.2 A85 19.97100067138672 0.125 25.799999237060547 -4.5 0.0 1.8900305032730103 0.05668000131845474 -14.56492805480957 10.39615249633789 -19.119997024536133 1.0779972076416016 2.0199999809265137 14.994989395141602 2.0407698154449463 1.010282039642334
16.796297 -15.907527 J010711.11-155427.1 A151 20.0049991607666 0.03600001335144043 179.0 -4.599999904632568 0.0 1.2928215265274048 0.053050000220537186 -11.12584400177002 9.927360534667969 -18.772001266479492 0.6500015258789062 1.6699999570846558 14.746088981628418 2.5517032146453857 1.527966022491455
16.78462 -15.87291 J010708.31-155222.5 A151 20.649999618530273 0.43800002336502075 14.0 2.5999999046325684 1.0 1.2531108856201172 0.05291000008583069 -11.561019897460938 9.94063949584961 -19.571002960205078 0.4940013885498047 1.6699999570846558 14.746088981628418 2.475053071975708 1.4820677042007446
17.544619 -15.827454 J011010.71-154938.8 A151 20.68899917602539 0.2160000205039978 76.69999694824219 -1.600000023841858 1.0 1.3638396263122559 0.052069999277591705 -10.8914155960083 9.587912559509277 -18.54899787902832 0.7229976654052734 1.6699999570846558 14.746088981628418 2.10494327545166 1.26044499874115
17.569426 -15.821626 J011016.66-154917.9 A151 20.344999313354492 0.17000001668930054 106.30000305175781 1.600000023841858 1.0 1.3120001554489136 0.05135999992489815 -11.129524230957031 9.765575408935547 -19.48200035095215 0.4550018310546875 1.6699999570846558 14.746088981628418 2.146040201187134 1.285054087638855
17.517315 -15.750692 J011004.16-154502.5 A151 21.32900047302246 0.4259999990463257 113.0999984741211 1.399999976158142 1.0 1.3324699401855469 0.053199999034404755 -11.005880355834961 9.381650924682617 -17.852001190185547 0.4230003356933594 1.6699999570846558 14.746088981628418 1.8014240264892578 1.0786970853805542
17.508902 -15.709573 J011002.14-154234.5 A151 20.378000259399414 0.058000028133392334 173.10000610351562 4.0 1.0 1.1469008922576904 0.05485000088810921 -12.216937065124512 10.515987396240234 -20.678998947143555 0.4139995574951172 1.6699999570846558 14.746088981628418 1.658141851425171 0.9928992986679077
17.479595 -15.630804 J010955.10-153750.9 A151 20.149999618530273 0.08600002527236938 62.20000076293945 2.5 1.0 1.4359811544418335 0.06029000133275986 -11.497380256652832 10.328150749206543 -20.16800308227539 0.5650005340576172 1.6699999570846558 14.746088981628418 1.3597790002822876 0.8142389059066772
17.101786 -15.626824 J010824.46-153736.7 A151 21.534000396728516 0.4139999747276306 34.0 2.5999999046325684 1.0 1.4710338115692139 0.05635000020265579 -9.9292573928833 9.3230619430542 -18.06900405883789 0.6070060729980469 1.6699999570846558 14.746088981628418 0.9719395041465759 0.5819997191429138
17.433783 -15.625568 J010944.11-153732.0 A151 21.31100082397461 0.05900001525878906 54.0 -2.0999999046325684 1.0 1.4710338115692139 0.05548999831080437 -11.41703987121582 9.819466590881348 -17.959001541137695 0.9270000457763672 1.6699999570846558 14.746088981628418 1.217427372932434 0.7289984226226807
17.65381 -15.610895 J011036.91-153639.2 A151 18.253999710083008 0.08399999141693115 163.5 -4.300000190734863 1.0 1.1469008922576904 0.052069999277591705 -11.931896209716797 10.666297912597656 -20.496999740600586 0.8120021820068359 1.6699999570846558 14.746088981628418 1.879883885383606 1.1256790161132812
17.473507 -15.584336 J010953.64-153503.6 A151 18.597999572753906 0.2070000171661377 54.599998474121094 -3.9000000953674316 1.0 1.2661672830581665 0.04992000013589859 -11.426939964294434 10.593975067138672 -20.26400375366211 0.8870029449462891 1.6699999570846558 14.746088981628418 1.227309226989746 0.7349157333374023
17.470633 -15.560063 J010952.95-153336.2 A151 20.864999771118164 0.2369999885559082 51.20000076293945 3.0 0.0 1.5229089260101318 0.05640000104904175 -11.770687103271484 9.804815292358398 -18.076000213623047 0.8670005798339844 1.6699999570846558 14.746088981628418 1.164967656135559 0.69758540391922
17.415058 -15.539876 J010939.61-153223.6 A151 18.545000076293945 0.265999972820282 15.5 -1.399999976158142 1.0 1.3832502365112305 0.05648000165820122 -12.516345977783203 10.32240104675293 -20.150001525878906 0.7320022583007812 1.6699999570846558 14.746088981628418 0.9422163367271423 0.5642014145851135
17.169867 -15.414578 J010840.78-152452.8 A151 19.89900016784668 0.10000002384185791 18.799999237060547 -4.900000095367432 0.0 1.6070606708526611 0.05575999990105629 -12.512752532958984 10.091649055480957 -18.783000946044922 0.8500022888183594 1.6699999570846558 14.746088981628418 0.16413795948028564 0.0982862040400505
17.127045 -15.400223 J010830.54-152400.8 A151 19.073999404907227 0.3960000276565552 31.600000381469727 -0.6000000238418579 0.0 1.3832502365112305 0.05435999855399132 -12.058404922485352 10.532416343688965 -20.144001007080078 0.8879985809326172 1.6699999570846558 14.746088981628418 0.32687708735466003 0.19573478400707245
17.073656 -15.389494 J010817.70-152322.3 A151 20.743999481201172 0.02899998426437378 79.0 2.5999999046325684 0.0 1.585839033126831 0.054340001195669174 -12.041460037231445 9.81461238861084 -19.046003341674805 0.69000244140625 1.6699999570846558 14.746088981628418 0.5352875590324402 0.3205314576625824
17.41384 -15.364487 J010939.32-152152.1 A151 18.150999069213867 0.13499999046325684 71.0 1.100000023841858 1.0 1.3210039138793945 0.052379999309778214 -12.790935516357422 11.31614875793457 -21.777999877929688 0.8489980697631836 1.6699999570846558 14.746088981628418 0.7935364842414856 0.4751715660095215
17.557707 -15.391756 J011013.85-152330.3 A151 20.0 0.4179999828338623 15.600000381469727 -2.4000000953674316 0.0 1.4710338115692139 0.05595000088214874 -10.709750175476074 9.512101173400879 -18.106000900268555 0.707000732421875 1.6699999570846558 14.746088981628418 1.3289077281951904 0.7957531213760376
17.204071 -15.327997 J010848.99-151941.1 A151 19.607999801635742 0.28600001335144043 28.700000762939453 -4.599999904632568 1.0 1.6070606708526611 0.053690001368522644 -11.26467514038086 9.906253814697266 -18.732999801635742 0.8219966888427734 1.6699999570846558 14.746088981628418 0.3159978687763214 0.18922029435634613
17.167974 -15.305675 J010840.31-151820.9 A151 18.35099983215332 0.13999998569488525 151.6999969482422 -4.699999809265137 0.0 3.113231897354126 0.05351179093122482 -11.455322265625 10.37880802154541 -20.000001907348633 0.8250045776367188 1.6699999570846558 14.746088981628418 0.4369368851184845 0.2616388499736786
17.167974 -15.305675 J010840.31-151820.9 A151 18.35099983215332 0.13999998569488525 151.6999969482422 -4.699999809265137 0.0 3.113231897354126 0.05351179093122482 -11.455322265625 10.37880802154541 -20.000001907348633 0.8250045776367188 1.6699999570846558 14.746088981628418 0.4369368851184845 0.2616388499736786
17.167974 -15.305675 J010840.31-151820.9 A151 18.35099983215332 0.13999998569488525 151.6999969482422 -4.699999809265137 0.0 3.113231897354126 0.05351179093122482 -11.455322265625 10.37880802154541 -20.000001907348633 0.8250045776367188 1.6699999570846558 14.746088981628418 0.4369368851184845 0.2616388499736786
16.792418 -15.303956 J010710.18-151814.2 A151 20.292999267578125 0.10900002717971802 125.5999984741211 -1.5 1.0 1.314874291419983 0.05319000035524368 -14.025920867919922 10.532748222351074 -19.567001342773438 0.8160018920898438 1.6699999570846558 14.746088981628418 1.662105679512024 0.9952728748321533
16.983889 -15.3077 J010756.13-151827.7 A151 19.36199951171875 0.37199997901916504 28.299999237060547 -3.799999952316284 1.0 1.4710338115692139 0.05076000094413757 -11.649823188781738 10.113157272338867 -18.80299949645996 0.9270000457763672 1.6699999570846558 14.746088981628418 0.9606249928474426 0.5752245187759399
17.491226 -15.288491 J010957.89-151718.6 A151 20.40999984741211 0.37599998712539673 157.1999969482422 2.799999952316284 1.0 1.2661672830581665 0.05607999861240387 -11.436182975769043 10.15042495727539 -19.97800064086914 0.41300392150878906 1.6699999570846558 14.746088981628418 1.1717591285705566 0.7016521692276001
17.415964 -15.2704935 J010939.83-151613.8 A151 21.12700080871582 0.4049999713897705 107.4000015258789 -3.9000000953674316 1.0 1.4710338115692139 0.05584000051021576 -14.367386817932129 9.591438293457031 -18.13800048828125 0.822998046875 1.6699999570846558 14.746088981628418 0.9536604285240173 0.5710541605949402
17.75165 -15.254736 J011100.40-151517.0 A151 19.750999450683594 0.3610000014305115 116.0999984741211 0.10000000149011612 1.0 1.1443939208984375 0.05350999906659126 -13.213583946228027 10.7610502243042 -20.284997940063477 0.9939956665039062 1.6699999570846558 14.746088981628418 2.1595613956451416 1.293150544166565
16.725336 -15.252607 J010654.08-151509.4 A151 21.426000595092773 0.31300002336502075 55.599998474121094 4.0 1.0 1.3638396263122559 0.055070001631975174 -13.05120849609375 9.692779541015625 -19.01700210571289 0.6160011291503906 1.6699999570846558 14.746088981628418 1.9670360088348389 1.1778658628463745
16.928719 -15.217563 J010742.89-151303.2 A151 21.0 0.14399999380111694 126.0999984741211 -2.200000047683716 0.0 1.4710338115692139 0.05685000121593475 -10.68792724609375 9.621546745300293 -18.3799991607666 0.7809963226318359 1.6699999570846558 14.746088981628418 1.3235691785812378 0.7925564050674438
17.612295 -15.204831 J011026.95-151217.4 A151 19.79400062561035 0.046999990940093994 6.599999904632568 -3.700000047683716 1.0 1.314874291419983 0.05609000101685524 -13.085403442382812 10.366703033447266 -19.564001083374023 0.9539985656738281 1.6699999570846558 14.746088981628418 1.7357367277145386 1.0393632650375366
17.409687 -15.018017 J010938.32-150104.8 A151 19.6299991607666 0.07999998331069946 0.30000001192092896 1.899999976158142 0.0 1.1469008922576904 0.05803000181913376 -11.324503898620605 10.869117736816406 -20.828001022338867 0.5540008544921875 1.6699999570846558 14.746088981628418 1.7252519130706787 1.0330849885940552
17.395046 -15.028063 J010934.81-150141.0 A151 21.214000701904297 0.14099997282028198 81.0999984741211 1.7999999523162842 1.0 1.3324699401855469 0.050360001623630524 -10.621663093566895 9.015007019042969 -18.29800033569336 0.3970012664794922 1.6699999570846558 14.746088981628418 1.6649012565612793 0.9969468116760254
16.952559 -14.948964 J010748.61-145656.3 A151 21.260000228881836 0.2760000228881836 13.899999618530273 -4.199999809265137 0.0 1.411934733390808 0.05603000149130821 -11.463919639587402 9.02609634399414 -17.424999237060547 0.6429977416992188 1.6699999570846558 14.746088981628418 2.0783743858337402 1.2445355653762817
17.127628 -14.951249 J010830.63-145704.5 A151 18.097000122070312 0.18199998140335083 5.900000095367432 -0.699999988079071 1.0 1.0952903032302856 0.051649998873472214 -12.23923110961914 11.22126579284668 -21.413999557495117 0.9150009155273438 1.6699999570846558 14.746088981628418 1.8433878421783447 1.1038249731063843
17.289148 -14.922084 J010909.39-145519.5 A151 21.077999114990234 0.08499997854232788 54.79999923706055 1.2000000476837158 1.0 1.3638396263122559 0.05186000093817711 -11.55677604675293 9.734367370605469 -18.895999908447266 0.7219982147216797 1.6699999570846558 14.746088981628418 1.9535597562789917 1.1697962284088135
19.264908 0.0076355557 J011703.58+000027.5 A168 18.1560001373291 0.2149999737739563 81.4000015258789 -1.2999999523162842 1.0 1.6666666269302368 0.045899998396635056 -11.755444526672363 11.008118629455566 -21.32699966430664 0.9749984741210938 0.9700000286102295 14.034928321838379 1.9932444095611572 2.0548911094665527
19.084812 0.004393611 J011620.35+000015.8 A168 20.55500030517578 0.1290000081062317 70.19999694824219 -2.0999999046325684 1.0 1.3071895837783813 0.044210001826286316 -11.713186264038086 9.76317310333252 -18.80900001525879 0.8259983062744141 0.9700000286102295 14.034928321838379 1.5509644746780396 1.5989325046539307
19.21139 0.057899166 J011650.73+000328.4 A168 20.94700050354004 0.31800001859664917 97.4000015258789 4.199999809265137 1.0 1.3333333730697632 0.047129999846220016 -11.202032089233398 9.804491996765137 -19.404998779296875 0.6559982299804688 0.9700000286102295 14.034928321838379 1.7475708723068237 1.801619529724121
18.856148 0.07168084 J011525.46+000417.8 A168 19.357999801635742 0.265999972820282 64.80000305175781 -1.7000000476837158 1.0 1.107419729232788 0.04301000013947487 -12.02177906036377 9.900700569152832 -18.9739990234375 0.8489990234375 0.9700000286102295 14.034928321838379 0.9808422327041626 1.0111775398254395
18.408272 0.08010167 J011337.98+000448.4 A168 21.389999389648438 0.35500001907348633 115.5999984741211 4.199999809265137 1.0 1.2987620830535889 0.046069998294115067 -11.611647605895996 9.888053894042969 -18.612001419067383 0.7450027465820312 0.9700000286102295 14.034928321838379 1.5784380435943604 1.6272556781768799
18.68144 0.08967861 J011443.55+000522.8 A168 20.235000610351562 0.30400002002716064 85.19999694824219 3.0 1.0 1.1402509212493896 0.04475000128149986 -11.83881950378418 10.467942237854004 -19.908002853393555 0.8110008239746094 0.9700000286102295 14.034928321838379 0.9611908793449402 0.9909184575080872
19.017136 0.10091 J011604.11+000603.0 A168 20.479999542236328 0.24199998378753662 66.0 1.5 1.0 1.2610341310501099 0.04554999992251396 -11.4450044631958 9.821277618408203 -19.266000747680664 0.8170013427734375 0.9700000286102295 14.034928321838379 1.155218482017517 1.1909469366073608
18.846008 0.11468 J011523.03+000652.7 A168 20.871000289916992 0.07300001382827759 170.10000610351562 -3.700000047683716 1.0 1.3091285228729248 0.04600999876856804 -11.49738597869873 9.388522148132324 -17.823997497558594 0.8289985656738281 0.9700000286102295 14.034928321838379 0.8324180245399475 0.8581629395484924
18.811625 0.123820275 J011514.78+000725.5 A168 21.233999252319336 0.23500001430511475 179.39999389648438 -0.800000011920929 1.0 1.3091285228729248 0.04608999937772751 -11.282564163208008 9.655983924865723 -17.847999572753906 0.9260005950927734 0.9700000286102295 14.034928321838379 0.7817789316177368 0.8059576153755188
18.907124 0.13885888 J011537.73+000820.0 A168 21.325000762939453 0.015999972820281982 138.89999389648438 5.199999809265137 1.0 1.1402509212493896 0.046549998223781586 -11.771095275878906 10.092639923095703 -19.30299949645996 0.6089992523193359 0.9700000286102295 14.034928321838379 0.8321437835693359 0.8578802347183228
18.541996 0.20170167 J011410.08+001206.3 A168 18.985000610351562 0.30900001525878906 158.1999969482422 -0.20000000298023224 1.0 1.1402509212493896 0.04400999844074249 -12.413111686706543 10.610761642456055 -20.501998901367188 0.9490013122558594 0.9700000286102295 14.034928321838379 0.9742200970649719 1.0043506622314453
18.702984 0.23001805 J011448.71+001347.9 A168 18.624000549316406 0.21399998664855957 106.5999984741211 -3.0 1.0 1.1086474657058716 0.046539999544620514 -12.504510879516602 10.848794937133789 -20.856000900268555 0.9680023193359375 0.9700000286102295 14.034928321838379 0.5057815313339233 0.5214242935180664
18.637075 0.23379584 J011432.92+001401.6 A168 19.10300064086914 0.11500000953674316 8.100000381469727 -4.599999904632568 0.0 1.1778563261032104 0.04529000073671341 -11.275411605834961 10.389330863952637 -19.845998764038086 0.9829978942871094 0.9700000286102295 14.034928321838379 0.6489292979240417 0.6689992547035217
18.682697 0.286065 J011443.85+001709.8 A168 20.03700065612793 0.3709999918937683 151.39999389648438 4.400000095367432 1.0 1.1086474657058716 0.04529999941587448 -12.394683837890625 11.01082992553711 -20.937999725341797 0.5469989776611328 0.9700000286102295 14.034928321838379 0.4203663468360901 0.43336737155914307
18.879837 0.29914555 J011531.18+001757.3 A168 18.226999282836914 0.18900001049041748 63.400001525878906 -4.5 1.0 1.1086474657058716 0.04651999846100807 -13.083619117736816 10.903403282165527 -21.332000732421875 0.9690036773681641 0.9700000286102295 14.034928321838379 0.3641577661037445 0.37542036175727844
18.44292 0.3057664 J011346.30+001820.8 A168 19.160999298095703 0.42100000381469727 178.60000610351562 2.5 1.0 1.1402509212493896 0.0444599986076355 -12.700275421142578 11.07065486907959 -21.791004180908203 0.9910049438476562 0.9700000286102295 14.034928321838379 1.173339605331421 1.2096284627914429
18.628286 0.32449445 J011430.82+001928.5 A168 18.97100067138672 0.22299998998641968 66.0999984741211 1.899999976158142 1.0 1.1086474657058716 0.04393000155687332 -12.616928100585938 11.110330581665039 -21.659997940063477 0.847996711730957 0.9700000286102295 14.034928321838379 0.5451595783233643 0.5620201826095581
18.878641 0.3130261 J011530.89+001846.5 A168 20.18199920654297 0.36000001430511475 100.5 1.7000000476837158 1.0 1.1086474657058716 0.048659998923540115 -12.216107368469238 10.500568389892578 -19.601001739501953 0.8930034637451172 0.9700000286102295 14.034928321838379 0.3390089273452759 0.34949374198913574
18.936352 0.3324039 J011544.71+001956.9 A168 20.611000061035156 0.3669999837875366 83.69999694824219 3.0 1.0 1.1778563261032104 0.04481000080704689 -11.559919357299805 10.05614185333252 -20.26700210571289 0.22600364685058594 0.9700000286102295 14.034928321838379 0.5096113085746765 0.5253724455833435
18.873655 0.33103555 J011529.68+001951.8 A168 20.948999404907227 0.09200000762939453 54.599998474121094 -1.100000023841858 1.0 1.1086474657058716 0.042980000376701355 -12.073453903198242 9.558623313903809 -18.816999435424805 0.8889999389648438 0.9700000286102295 14.034928321838379 0.302720844745636 0.31208333373069763
18.809763 0.33873528 J011514.34+002019.7 A168 20.125 0.36400002241134644 74.80000305175781 3.200000047683716 1.0 1.1086474657058716 0.04706000164151192 -11.86143970489502 10.260991096496582 -20.28999900817871 0.7179965972900391 0.9700000286102295 14.034928321838379 0.09253958612680435 0.09540163725614548
18.976875 0.40069723 J011554.41+002402.9 A168 21.43600082397461 0.45899999141693115 169.60000610351562 1.2999999523162842 0.0 1.5477744340896606 0.040059998631477356 -12.197543144226074 9.159284591674805 -16.33300018310547 1.2859992980957031 0.9700000286102295 14.034928321838379 0.6603431105613708 0.6807661056518555
19.20026 0.54088724 J011648.06+003227.2 A168 19.208999633789062 0.07499998807907104 167.0 -1.7000000476837158 1.0 1.1312217712402344 0.044759999960660934 -11.674732208251953 10.573734283447266 -20.315998077392578 0.8159980773925781 0.9700000286102295 14.034928321838379 1.5316678285598755 1.5790390968322754
18.713242 0.5508611 J011451.21+003303.5 A168 19.881999969482422 0.3109999895095825 32.099998474121094 -3.0 1.0 1.1086474657058716 0.04761999845504761 -13.091087341308594 10.235020637512207 -19.8070011138916 0.9169998168945312 0.9700000286102295 14.034928321838379 0.7099506855010986 0.7319079041481018
19.048943 0.5770389 J011611.75+003437.3 A168 21.07900047302246 0.3999999761581421 26.600000381469727 -0.10000000149011612 1.0 1.3091285228729248 0.042490001767873764 -10.953808784484863 9.434290885925293 -18.043001174926758 0.5210018157958984 0.9700000286102295 14.034928321838379 1.161820888519287 1.1977535486221313
18.696701 0.632165 J011447.21+003755.8 A168 21.386999130249023 0.22100001573562622 107.80000305175781 3.5999999046325684 1.0 1.1086474657058716 0.047970000654459 -10.367030143737793 9.350590705871582 -19.029998779296875 0.6499996185302734 0.9700000286102295 14.034928321838379 0.98763507604599 1.0181804895401
18.990433 0.69335306 J011557.70+004136.1 A168 21.190000534057617 0.2540000081062317 3.0999999046325684 3.9000000953674316 1.0 1.107419729232788 0.04303000122308731 -12.359301567077637 9.693696022033691 -19.413999557495117 0.5960006713867188 0.9700000286102295 14.034928321838379 1.3361555337905884 1.377479910850525
19.148502 0.7588875 J011635.64+004532.0 A168 19.66699981689453 0.20200002193450928 135.39999389648438 3.200000047683716 1.0 1.3071895837783813 0.044840000569820404 -11.631938934326172 10.310162544250488 -20.78900146484375 0.6210002899169922 0.9700000286102295 14.034928321838379 1.833017110824585 1.889708399772644
18.923307 0.7313525 J011541.59+004352.9 A168 20.464000701904297 0.2760000228881836 177.0 3.0999999046325684 1.0 1.1402509212493896 0.043880000710487366 -11.590388298034668 10.093659400939941 -19.194000244140625 0.6149997711181641 0.9700000286102295 14.034928321838379 1.354943037033081 1.396848440170288
21.246511 8.4666815 J012459.16+082800.3 A193 21.393999099731445 0.13599997758865356 119.80000305175781 0.699999988079071 1.0 2.1000242233276367 0.04992999881505966 -11.733054161071777 9.717633247375488 -18.463998794555664 0.6320018768310547 1.5800000429153442 14.671954154968262 0.8540629148483276 0.5405461192131042
21.246511 8.4666815 J012459.16+082800.3 A193 21.393999099731445 0.13599997758865356 119.80000305175781 0.699999988079071 1.0 2.1000242233276367 0.04992999881505966 -11.733054161071777 9.717633247375488 -18.463998794555664 0.6320018768310547 1.5800000429153442 14.671954154968262 0.8540629148483276 0.5405461192131042
21.36306 8.738224 J012527.15+084417.6 A193 19.030000686645508 0.03799998760223389 66.5999984741211 -4.599999904632568 1.0 1.6851187944412231 0.04879999905824661 -11.264138221740723 10.468305587768555 -19.92599868774414 1.003000259399414 1.5800000429153442 14.671954154968262 0.32810014486312866 0.2076583206653595
21.345123 8.90277 J012522.83+085409.8 A193 19.347999572753906 0.1510000228881836 15.800000190734863 -4.900000095367432 0.0 1.7856346368789673 0.04704999923706055 -11.36551284790039 10.115324020385742 -19.010997772216797 1.05999755859375 1.5800000429153442 14.671954154968262 0.7720352411270142 0.48862987756729126
21.477505 8.902446 J012554.60+085408.8 A193 20.695999145507812 0.31199997663497925 8.100000381469727 -4.0 0.0 1.689822793006897 0.04984999820590019 -9.185281753540039 9.054348945617676 -18.229999542236328 0.983001708984375 1.5800000429153442 14.671954154968262 1.0199109315872192 0.6455132961273193
21.044271 9.012674 J012410.62+090045.6 A193 19.398000717163086 0.12699997425079346 7.099999904632568 1.2999999523162842 1.0 1.0582010746002197 0.04921000078320503 -12.27904224395752 10.924646377563477 -20.894996643066406 0.7279996871948242 1.5800000429153442 14.671954154968262 1.41508150100708 0.8956211805343628
21.372683 9.008019 J012529.44+090028.9 A193 20.007999420166016 0.3920000195503235 55.099998474121094 -0.800000011920929 1.0 1.4368433952331543 0.04910000041127205 -11.824864387512207 10.111773490905762 -19.298999786376953 0.9469985961914062 1.5800000429153442 14.671954154968262 1.1659367084503174 0.7379346489906311
21.640408 9.0568285 J012633.70+090324.6 A193 19.8439998626709 0.19999998807907104 35.400001525878906 3.9000000953674316 1.0 1.068376064300537 0.04964999854564667 -12.861100196838379 11.472243309020996 -21.93600082397461 0.7620000839233398 1.5800000429153442 14.671954154968262 1.8283076286315918 1.1571567058563232
20.799566 9.070333 J012311.89+090413.2 A193 21.433000564575195 0.18400001525878906 143.0 3.4000000953674316 1.0 1.4571142196655273 0.047600001096725464 -12.53359603881836 9.760469436645508 -18.8280029296875 0.7460041046142578 1.5800000429153442 14.671954154968262 2.1844699382781982 1.3825759887695312
21.495522 9.141237 J012558.92+090828.4 A193 19.118999481201172 0.4139999747276306 112.80000305175781 1.600000023841858 1.0 1.068376064300537 0.04442000016570091 -12.328276634216309 10.886995315551758 -21.046001434326172 1.1119985580444336 1.5800000429153442 14.671954154968262 1.7771832942962646 1.1247994899749756
20.840567 9.122557 J012321.74+090721.2 A193 20.68000030517578 0.0350000262260437 28.700000762939453 1.100000023841858 1.0 1.3824948072433472 0.052710000425577164 -11.319500923156738 10.19543170928955 -19.770998001098633 0.6829967498779297 1.5800000429153442 14.671954154968262 2.1982035636901855 1.3912681341171265
69.47091 -22.561693 J043753.02-223342.1 A500 18.8799991607666 0.04500001668930054 19.299999237060547 -4.300000190734863 0.0 1.3816736936569214 0.0666700005531311 -12.510049819946289 11.376100540161133 -21.66299819946289 1.08599853515625 1.7999999523162842 14.849886894226074 2.5753214359283447 1.4307340383529663
69.39648 -22.322056 J043735.14-221919.4 A500 20.045000076293945 0.10699999332427979 76.80000305175781 1.7999999523162842 1.0 1.3977022171020508 0.06992000341415405 -12.522022247314453 10.794533729553223 -21.084001541137695 0.9090003967285156 1.7999999523162842 14.849886894226074 1.8608887195587158 1.0338270664215088
69.79678 -22.32516 J043911.23-221930.9 A500 20.076000213623047 0.18699997663497925 136.3000030517578 2.299999952316284 1.0 1.7025913000106812 0.06616000086069107 -11.160247802734375 10.186295509338379 -20.378997802734375 0.4909954071044922 1.7999999523162842 14.849886894226074 1.1540496349334717 0.6411386728286743
69.35665 -22.281649 J043725.60-221654.1 A500 20.517000198364258 0.08099997043609619 127.0 -2.9000000953674316 1.0 1.5406278371810913 0.0684100016951561 -11.624065399169922 10.189546585083008 -19.809999465942383 0.9930000305175781 1.7999999523162842 14.849886894226074 1.914834976196289 1.0637972354888916
69.49292 -22.248795 J043758.30-221455.6 A500 19.738000869750977 0.13599997758865356 80.0999984741211 -3.0 1.0 1.7025913000106812 0.06889999657869339 -12.69910717010498 10.615386962890625 -20.30099868774414 0.9190006256103516 1.7999999523162842 14.849886894226074 1.2759064435958862 0.7088369131088257
69.477234 -22.2331 J043754.52-221359.0 A500 19.18000030517578 0.05199998617172241 168.10000610351562 1.0 1.0 4.726154804229736 0.06763201951980591 -11.355542182922363 11.188529014587402 -21.937999725341797 0.7409982681274414 1.7999999523162842 14.849886894226074 1.2979934215545654 0.7211074233055115
69.477234 -22.2331 J043754.52-221359.0 A500 19.18000030517578 0.05199998617172241 168.10000610351562 1.0 1.0 4.726154804229736 0.06763201951980591 -11.355542182922363 11.188529014587402 -21.937999725341797 0.7409982681274414 1.7999999523162842 14.849886894226074 1.2979934215545654 0.7211074233055115
69.477234 -22.2331 J043754.52-221359.0 A500 19.18000030517578 0.05199998617172241 168.10000610351562 1.0 1.0 4.726154804229736 0.06763201951980591 -11.355542182922363 11.188529014587402 -21.937999725341797 0.7409982681274414 1.7999999523162842 14.849886894226074 1.2979934215545654 0.7211074233055115
69.477234 -22.2331 J043754.52-221359.0 A500 19.18000030517578 0.05199998617172241 168.10000610351562 1.0 1.0 4.726154804229736 0.06763201951980591 -11.355542182922363 11.188529014587402 -21.937999725341797 0.7409982681274414 1.7999999523162842 14.849886894226074 1.2979934215545654 0.7211074233055115
69.607414 -22.13305 J043825.77-220758.9 A500 19.631999969482422 0.29100000858306885 49.70000076293945 -3.9000000953674316 1.0 1.7138254642486572 0.06621000170707703 -10.383904457092285 9.965782165527344 -20.52400016784668 0.48799896240234375 1.7999999523162842 14.849886894226074 0.5371270179748535 0.29840391874313354
69.46961 -22.13698 J043752.67-220813.1 A500 21.354999542236328 0.1769999861717224 98.69999694824219 6.0 1.0 1.7025913000106812 0.06970000267028809 -12.26773738861084 10.316232681274414 -20.145999908447266 0.6339988708496094 1.7999999523162842 14.849886894226074 1.1812121868133545 0.6562289595603943
69.80885 -22.132385 J043914.11-220756.5 A500 19.358999252319336 0.09500002861022949 16.299999237060547 -3.700000047683716 1.0 5.059200286865234 0.06815238296985626 -11.051809310913086 10.399737358093262 -20.54100227355957 0.7280044555664062 1.7999999523162842 14.849886894226074 0.4394308030605316 0.24412822723388672
69.80885 -22.132385 J043914.11-220756.5 A500 19.358999252319336 0.09500002861022949 16.299999237060547 -3.700000047683716 1.0 5.059200286865234 0.06815238296985626 -11.051809310913086 10.399737358093262 -20.54100227355957 0.7280044555664062 1.7999999523162842 14.849886894226074 0.4394308030605316 0.24412822723388672
69.80885 -22.132385 J043914.11-220756.5 A500 19.358999252319336 0.09500002861022949 16.299999237060547 -3.700000047683716 1.0 5.059200286865234 0.06815238296985626 -11.051809310913086 10.399737358093262 -20.54100227355957 0.7280044555664062 1.7999999523162842 14.849886894226074 0.4394308030605316 0.24412822723388672
69.80885 -22.132385 J043914.11-220756.5 A500 19.358999252319336 0.09500002861022949 16.299999237060547 -3.700000047683716 1.0 5.059200286865234 0.06815238296985626 -11.051809310913086 10.399737358093262 -20.54100227355957 0.7280044555664062 1.7999999523162842 14.849886894226074 0.4394308030605316 0.24412822723388672
69.80885 -22.132385 J043914.11-220756.5 A500 19.358999252319336 0.09500002861022949 16.299999237060547 -3.700000047683716 1.0 5.059200286865234 0.06815238296985626 -11.051809310913086 10.399737358093262 -20.54100227355957 0.7280044555664062 1.7999999523162842 14.849886894226074 0.4394308030605316 0.24412822723388672
69.661606 -22.056973 J043838.78-220325.0 A500 17.802000045776367 0.04000002145767212 97.69999694824219 1.0 1.0 3.1620001792907715 0.06708163768053055 -10.97374153137207 10.937914848327637 -21.90599822998047 0.551997184753418 1.7999999523162842 14.849886894226074 0.3809538781642914 0.21164104342460632
69.661606 -22.056973 J043838.78-220325.0 A500 17.802000045776367 0.04000002145767212 97.69999694824219 1.0 1.0 3.1620001792907715 0.06708163768053055 -10.97374153137207 10.937914848327637 -21.90599822998047 0.551997184753418 1.7999999523162842 14.849886894226074 0.3809538781642914 0.21164104342460632
69.661606 -22.056973 J043838.78-220325.0 A500 17.802000045776367 0.04000002145767212 97.69999694824219 1.0 1.0 3.1620001792907715 0.06708163768053055 -10.97374153137207 10.937914848327637 -21.90599822998047 0.551997184753418 1.7999999523162842 14.849886894226074 0.3809538781642914 0.21164104342460632
70.214455 -22.024315 J044051.47-220127.5 A500 19.05500030517578 0.3059999942779541 100.0999984741211 -3.0 1.0 1.2615909576416016 0.06436999887228012 -11.418225288391113 10.91568660736084 -21.284997940063477 0.8599967956542969 1.7999999523162842 14.849886894226074 2.376300573348999 1.320167064666748
69.39342 -22.00368 J043734.38-220013.1 A500 20.618000030517578 0.2459999918937683 65.0999984741211 1.2999999523162842 1.0 1.6538246870040894 0.0655599981546402 -10.667682647705078 9.856010437011719 -20.15300178527832 0.42800140380859375 1.7999999523162842 14.849886894226074 1.6253721714019775 0.9029845595359802
70.048035 -21.943102 J044011.50-215635.9 A500 20.66900062561035 0.17400002479553223 52.400001525878906 3.0999999046325684 1.0 1.500397801399231 0.06786999851465225 -11.89285945892334 10.697041511535645 -20.83199691772461 0.5409984588623047 1.7999999523162842 14.849886894226074 1.769028902053833 0.9827938079833984
70.167984 -21.885181 J044040.30-215306.7 A500 19.33799934387207 0.08499997854232788 64.5999984741211 -1.0 1.0 1.2615909576416016 0.066430002450943 -11.520336151123047 10.61916732788086 -20.702001571655273 0.8559989929199219 1.7999999523162842 14.849886894226074 2.4068515300750732 1.3371397256851196
69.89722 -21.877913 J043935.33-215240.5 A500 19.368999481201172 0.31699997186660767 158.0 -2.4000000953674316 1.0 1.5446401834487915 0.07035999745130539 -11.812949180603027 10.812535285949707 -20.793001174926758 0.8670005798339844 1.7999999523162842 14.849886894226074 1.4494023323059082 0.8052235245704651
70.169685 -21.826445 J044040.71-214935.1 A500 21.066999435424805 0.11400002241134644 55.099998474121094 -2.700000047683716 1.0 1.3866856098175049 0.06524000316858292 -9.338447570800781 9.20141887664795 -18.954002380371094 0.8840007781982422 1.7999999523162842 14.849886894226074 2.5691585540771484 1.4273103475570679
69.6242 -21.78641 J043829.81-214710.9 A500 20.42099952697754 0.06999999284744263 20.200000762939453 2.9000000953674316 1.0 1.500397801399231 0.06499999761581421 -11.898650169372559 10.801456451416016 -21.270999908447266 0.5379981994628906 1.7999999523162842 14.849886894226074 1.704525113105774 0.9469583630561829
70.20276 -21.774239 J044048.65-214627.1 A500 19.445999145507812 0.218999981880188 59.29999923706055 -1.2999999523162842 1.0 1.4586191177368164 0.06717000156641006 -12.166475296020508 10.82633113861084 -21.032001495361328 0.8629989624023438 1.7999999523162842 14.849886894226074 2.850597381591797 1.583665132522583
70.06564 -21.741287 J044015.75-214428.6 A500 20.231000900268555 0.31699997186660767 144.89999389648438 3.4000000953674316 1.0 1.1634671688079834 0.06949000060558319 -13.899399757385254 11.120267868041992 -21.670001983642578 0.4990043640136719 1.7999999523162842 14.849886894226074 2.488384962081909 1.3824361562728882
69.76313 -21.744165 J043903.13-214438.8 A500 21.466999053955078 0.03700000047683716 145.6999969482422 4.699999809265137 1.0 1.5406278371810913 0.06627999991178513 -11.764237403869629 10.020990371704102 -19.767000198364258 0.7040004730224609 1.7999999523162842 14.849886894226074 1.8718256950378418 1.039903163909912
69.59698 -21.732264 J043823.27-214356.2 A500 19.658000946044922 0.10100001096725464 125.19999694824219 -3.0 1.0 1.5406278371810913 0.06339000165462494 -12.084589004516602 10.45409107208252 -20.342002868652344 0.8840045928955078 1.7999999523162842 14.849886894226074 2.0045576095581055 1.1136430501937866
153.58324 -0.85847 J101419.97-005130.3 A957x 19.788999557495117 0.2680000066757202 22.399999618530273 -3.5 1.0 2.059195041656494 0.04949678108096123 -12.674403190612793 9.678047180175781 -19.41899871826172 0.5040016174316406 1.4199999570846558 14.531388282775879 0.6262778639793396 0.4410407543182373
153.58324 -0.85847 J101419.97-005130.3 A957x 19.788999557495117 0.2680000066757202 22.399999618530273 -3.5 1.0 2.059195041656494 0.04949678108096123 -12.674403190612793 9.678047180175781 -19.41899871826172 0.5040016174316406 1.4199999570846558 14.531388282775879 0.6262778639793396 0.4410407543182373
153.62341 -0.80719 J101429.62-004825.7 A957x 19.042999267578125 0.25700002908706665 132.89999389648438 -4.699999809265137 1.0 2.4210000038146973 0.0417647585272789 -11.0792875289917 10.085518836975098 -19.696001052856445 0.5830020904541016 1.4199999570846558 14.531388282775879 0.822287917137146 0.5790759921073914
153.62341 -0.80719 J101429.62-004825.7 A957x 19.042999267578125 0.25700002908706665 132.89999389648438 -4.699999809265137 1.0 2.4210000038146973 0.0417647585272789 -11.0792875289917 10.085518836975098 -19.696001052856445 0.5830020904541016 1.4199999570846558 14.531388282775879 0.822287917137146 0.5790759921073914
153.47157 -0.74402 J101353.17-004438.5 A957x 21.02400016784668 0.10100001096725464 38.5 -0.30000001192092896 0.0 1.6931618452072144 0.049389999359846115 -10.698772430419922 9.596298217773438 -18.85199737548828 0.444000244140625 1.4199999570846558 14.531388282775879 0.645845890045166 0.45482105016708374
153.32634 -0.83287 J101318.33-004957.6 A957x 21.14299964904785 0.03299999237060547 170.89999389648438 3.0999999046325684 1.0 2.035737991333008 0.04909982904791832 -11.604700088500977 10.0498685836792 -20.24300193786621 0.3300037384033203 1.4199999570846558 14.531388282775879 0.4194376468658447 0.2953786253929138
153.32634 -0.83287 J101318.33-004957.6 A957x 21.14299964904785 0.03299999237060547 170.89999389648438 3.0999999046325684 1.0 2.035737991333008 0.04909982904791832 -11.604700088500977 10.0498685836792 -20.24300193786621 0.3300037384033203 1.4199999570846558 14.531388282775879 0.4194376468658447 0.2953786253929138
153.35199 -0.84273 J101324.47-005033.8 A957x 18.52899932861328 0.0690000057220459 149.3000030517578 -3.0 1.0 2.035737991333008 0.04249526932835579 -11.453897476196289 10.833791732788086 -20.65399932861328 0.7839956283569336 1.4199999570846558 14.531388282775879 0.3398323357105255 0.23931854963302612
153.35199 -0.84273 J101324.47-005033.8 A957x 18.52899932861328 0.0690000057220459 149.3000030517578 -3.0 1.0 2.035737991333008 0.04249526932835579 -11.453897476196289 10.833791732788086 -20.65399932861328 0.7839956283569336 1.4199999570846558 14.531388282775879 0.3398323357105255 0.23931854963302612
153.29024 -0.96856 J101309.64-005806.6 A957x 19.690000534057617 0.36500000953674316 111.80000305175781 -2.0 1.0 2.1291348934173584 0.04535391181707382 -13.019730567932129 10.333356857299805 -19.486997604370117 0.6889991760253906 1.4199999570846558 14.531388282775879 0.42553532123565674 0.2996727526187897
153.29024 -0.96856 J101309.64-005806.6 A957x 19.690000534057617 0.36500000953674316 111.80000305175781 -2.0 1.0 2.1291348934173584 0.04535391181707382 -13.019730567932129 10.333356857299805 -19.486997604370117 0.6889991760253906 1.4199999570846558 14.531388282775879 0.42553532123565674 0.2996727526187897
153.50195 -1.07988 J101400.48-010447.5 A957x 21.16699981689453 0.37199997901916504 131.5 -2.0 0.0 2.122997999191284 0.04377000033855438 -12.351120948791504 9.277856826782227 -17.57900047302246 0.7950019836425781 1.4199999570846558 14.531388282775879 0.6035588383674622 0.42504140734672546
153.50195 -1.07988 J101400.48-010447.5 A957x 21.16699981689453 0.37199997901916504 131.5 -2.0 0.0 2.122997999191284 0.04377000033855438 -12.351120948791504 9.277856826782227 -17.57900047302246 0.7950019836425781 1.4199999570846558 14.531388282775879 0.6035588383674622 0.42504140734672546
329.24954 -8.116294 J215659.83-080658.5 A2399 20.500999450683594 0.2789999842643738 3.9000000953674316 2.5 0.0 1.2267634868621826 0.059769999235868454 -12.488910675048828 9.791715621948242 -19.002002716064453 0.949005126953125 1.5499999523162842 14.650861740112305 1.4844270944595337 0.9576948881149292
329.11334 -8.044796 J215627.19-080241.1 A2399 21.288000106811523 0.02799999713897705 140.0 0.20000000298023224 0.0 1.5322710275650024 0.05912834033370018 -11.18045711517334 9.379724502563477 -18.310998916625977 0.6899967193603516 1.5499999523162842 14.650861740112305 1.5506914854049683 1.0004462003707886
329.63412 -8.017959 J215832.18-080104.6 A2399 20.70400047302246 0.31800001859664917 37.400001525878906 -1.100000023841858 1.0 1.2365219593048096 0.05747000128030777 -10.023813247680664 9.279057502746582 -18.8279972076416 0.5959968566894531 1.5499999523162842 14.650861740112305 1.4724963903427124 0.9499976634979248
329.61765 -7.9826927 J215828.23-075857.6 A2399 20.347000122070312 0.2200000286102295 165.5 0.0 1.0 1.17635977268219 0.061159998178482056 -12.08714771270752 10.006688117980957 -19.783998489379883 0.9549999237060547 1.5499999523162842 14.650861740112305 1.3211214542388916 0.8523364067077637
329.29892 -7.974037 J215711.73-075826.4 A2399 21.461999893188477 0.4710000157356262 121.4000015258789 3.9000000953674316 1.0 1.2771587371826172 0.05437999963760376 -11.414233207702637 9.761956214904785 -18.662002563476562 0.9390010833740234 1.5499999523162842 14.650861740112305 0.833746612071991 0.5379010438919067
329.51608 -7.945632 J215803.85-075643.9 A2399 21.195999145507812 0.0899999737739563 120.30000305175781 -2.700000047683716 0.0 1.5322710275650024 0.06151331961154938 -10.028501510620117 9.121674537658691 -18.326004028320312 0.5000057220458984 1.5499999523162842 14.650861740112305 0.8889675736427307 0.573527455329895
329.34674 -7.930306 J215723.22-075548.6 A2399 20.38599967956543 0.281000018119812 148.1999969482422 0.0 1.0 1.783355951309204 0.05756058916449547 -11.848651885986328 10.254260063171387 -19.821002960205078 0.7370033264160156 1.5499999523162842 14.650861740112305 0.5912958979606628 0.38148123025894165
329.32013 -7.9140325 J215716.82-075450.1 A2399 18.847000122070312 0.4610000252723694 136.39999389648438 1.399999976158142 1.0 2.0620789527893066 0.05789082124829292 -12.089810371398926 11.015892028808594 -21.145998001098633 0.8419971466064453 1.5499999523162842 14.650861740112305 0.5587770342826843 0.3605012893676758
329.32013 -7.9140325 J215716.82-075450.1 A2399 18.847000122070312 0.4610000252723694 136.39999389648438 1.399999976158142 1.0 2.0620789527893066 0.05789082124829292 -12.089810371398926 11.015892028808594 -21.145998001098633 0.8419971466064453 1.5499999523162842 14.650861740112305 0.5587770342826843 0.3605012893676758
329.81512 -7.9285054 J215915.63-075542.6 A2399 21.341999053955078 0.37400001287460327 81.80000305175781 0.800000011920929 0.0 1.3549951314926147 0.052310001105070114 -10.8828125 8.86343765258789 -17.744998931884766 0.6909980773925781 1.5499999523162842 14.650861740112305 1.977885365486145 1.276055097579956
329.09146 -7.908106 J215622.00-075428.7 A2399 21.038000106811523 0.390999972820282 24.399999618530273 5.0 1.0 1.2150195837020874 0.05621999874711037 -11.564229011535645 9.943916320800781 -19.828996658325195 0.5469989776611328 1.5499999523162842 14.650861740112305 1.3040854930877686 0.841345489025116
329.42657 -7.9054694 J215742.37-075419.3 A2399 19.27199935913086 0.25599998235702515 18.899999618530273 -4.099999904632568 1.0 1.8427170515060425 0.06175681948661804 -11.873550415039062 10.649070739746094 -20.574003219604492 0.7900028228759766 1.5499999523162842 14.650861740112305 0.5237659811973572 0.33791354298591614
329.50238 -7.88995 J215800.56-075323.3 A2399 19.15999984741211 0.13899999856948853 146.1999969482422 -1.5 1.0 1.9453891515731812 0.05751055106520653 -12.146578788757324 10.710021018981934 -20.71999740600586 0.6720008850097656 1.5499999523162842 14.650861740112305 0.6844518184661865 0.4415818154811859
329.26868 -7.8291397 J215704.49-074944.3 A2399 21.01300048828125 0.14600002765655518 102.30000305175781 -1.7999999523162842 1.0 1.6241809129714966 0.06134987995028496 -11.366321563720703 9.638854026794434 -18.554000854492188 0.647003173828125 1.5499999523162842 14.650861740112305 0.47224488854408264 0.3046741187572479
329.31003 -7.831717 J215714.40-074953.8 A2399 21.3439998626709 0.1380000114440918 25.200000762939453 -4.300000190734863 1.0 1.4472367763519287 0.05936000123620033 -11.085366249084473 8.932409286499023 -17.51099967956543 0.7750015258789062 1.5499999523162842 14.650861740112305 0.31342238187789917 0.2022079974412918
329.20837 -7.8117948 J215650.01-074842.2 A2399 19.60700035095215 0.22899997234344482 95.80000305175781 -2.299999952316284 1.0 1.562330961227417 0.06164674833416939 -12.220970153808594 10.334274291992188 -20.24700164794922 0.8440017700195312 1.5499999523162842 14.650861740112305 0.7124828100204468 0.45966634154319763
329.52417 -7.7755833 J215805.80-074631.4 A2399 21.45800018310547 0.421999990940094 94.0999984741211 2.799999952316284 1.0 1.5322710275650024 0.059491921216249466 -11.527900695800781 9.370248794555664 -18.496997833251953 0.6579990386962891 1.5499999523162842 14.650861740112305 0.6516931653022766 0.4204472005367279
329.79965 -7.770561 J215911.91-074614.0 A2399 20.38800048828125 0.26200002431869507 132.8000030517578 0.10000000149011612 1.0 1.1375787258148193 0.05282000079751015 -12.741557121276855 9.958036422729492 -19.440000534057617 0.9700031280517578 1.5499999523162842 14.650861740112305 1.8307501077651978 1.1811290979385376
329.488 -7.761954 J215757.11-074542.4 A2399 19.979999542236328 0.15700000524520874 8.899999618530273 2.5 1.0 1.1273956298828125 0.059780001640319824 -11.325258255004883 10.351873397827148 -20.535999298095703 1.039999008178711 1.5499999523162842 14.650861740112305 0.5122919082641602 0.3305109143257141
329.158 -7.765068 J215637.91-074554.5 A2399 20.60099983215332 0.10900002717971802 153.8000030517578 -4.900000095367432 0.0 1.2771587371826172 0.06199999898672104 -11.31485366821289 9.469869613647461 -18.4950008392334 0.9730014801025391 1.5499999523162842 14.650861740112305 0.9355050921440125 0.6035516858100891
329.48953 -7.752045 J215757.48-074506.9 A2399 21.44300079345703 0.13300001621246338 2.9000000953674316 -3.700000047683716 1.0 1.5322710275650024 0.06127982959151268 -11.765993118286133 9.671124458312988 -18.172000885009766 0.7690029144287109 1.5499999523162842 14.650861740112305 0.5327373147010803 0.3437015116214752
329.1181 -7.69133 J215628.35-074128.3 A2399 20.430999755859375 0.15799999237060547 12.600000381469727 -4.699999809265137 1.0 1.2771587371826172 0.054990001022815704 -11.347679138183594 9.701264381408691 -18.8960018157959 0.9210052490234375 1.5499999523162842 14.650861740112305 1.1872528791427612 0.7659696340560913
329.5722 -7.6744146 J215817.33-074027.2 A2399 19.959999084472656 0.06400001049041748 56.599998474121094 -3.5999999046325684 0.0 1.4739210605621338 0.058581288903951645 -11.575822830200195 10.232109069824219 -19.68899917602539 0.7839984893798828 1.5499999523162842 14.650861740112305 1.002445936203003 0.6467393040657043
329.34726 -7.674645 J215723.35-074028.2 A2399 20.881999969482422 0.1470000147819519 110.0 -0.30000001192092896 1.0 1.915666937828064 0.05669999122619629 -11.501148223876953 9.106496810913086 -17.746999740600586 0.7119998931884766 1.5499999523162842 14.650861740112305 0.5395567417144775 0.34810110926628113
329.17715 -7.662109 J215642.50-073943.2 A2399 19.867000579833984 0.17100000381469727 7.5 3.799999952316284 1.0 1.8427170515060425 0.055225640535354614 -11.546320915222168 9.87079906463623 -20.329002380371094 0.3780040740966797 1.5499999523162842 14.650861740112305 1.0244600772857666 0.6609419584274292
329.16837 -7.6350455 J215640.39-073805.5 A2399 21.45199966430664 0.06199997663497925 144.6999969482422 4.0 1.0 1.2267634868621826 0.05739999935030937 -11.241599082946777 9.655191421508789 -18.862998962402344 0.5520000457763672 1.5499999523162842 14.650861740112305 1.1243116855621338 0.7253623604774475
329.85162 -7.5784984 J215924.39-073442.6 A2399 19.270000457763672 0.14499998092651367 143.10000610351562 1.399999976158142 1.0 1.161440134048462 0.058010000735521317 -11.86304759979248 10.67255687713623 -21.10900115966797 0.595001220703125 1.5499999523162842 14.650861740112305 2.2572641372680664 1.4562994241714478
329.7745 -7.564338 J215905.88-073351.6 A2399 20.202999114990234 0.33399999141693115 25.5 -1.5 1.0 1.1313624382019043 0.05152999982237816 -10.803628921508789 9.502372741699219 -19.205997467041016 0.8169956207275391 1.5499999523162842 14.650861740112305 1.9916353225708008 1.2849260568618774
329.18942 -7.5358486 J215645.46-073209.2 A2399 20.42300033569336 0.12800002098083496 137.8000030517578 -2.5999999046325684 1.0 1.2771587371826172 0.05635000020265579 -11.19126033782959 9.670088768005371 -18.461000442504883 0.9430027008056641 1.5499999523162842 14.650861740112305 1.377516508102417 0.8887203335762024
329.19073 -7.5196137 J215645.77-073110.6 A2399 19.76799964904785 0.008000016212463379 30.299999237060547 -4.199999809265137 1.0 1.2150195837020874 0.056460000574588776 -11.565728187561035 9.950969696044922 -19.472997665405273 0.9149971008300781 1.5499999523162842 14.650861740112305 1.432555079460144 0.9242290258407593
329.44614 -7.519095 J215747.07-073108.6 A2399 21.38599967956543 0.0820000171661377 155.89999389648438 0.10000000149011612 1.0 1.2771587371826172 0.05764999985694885 -10.716702461242676 9.406792640686035 -18.46099853515625 0.7840003967285156 1.5499999523162842 14.650861740112305 1.2399542331695557 0.7999705076217651
329.49936 -7.463732 J215759.84-072749.5 A2399 19.474000930786133 0.19999998807907104 74.0999984741211 3.0999999046325684 1.0 1.128668189048767 0.058150000870227814 -12.278240203857422 10.836812973022461 -21.527999877929688 0.7319965362548828 1.5499999523162842 14.650861740112305 1.5377635955810547 0.9921055436134338
329.39676 -7.467199 J215735.24-072801.9 A2399 21.211999893188477 0.32099997997283936 159.89999389648438 3.5 1.0 1.17635977268219 0.057089999318122864 -12.897947311401367 9.87696647644043 -19.35199737548828 0.8849983215332031 1.5499999523162842 14.650861740112305 1.428524136543274 0.921628475189209
329.59146 -7.450033 J215821.95-072659.5 A2399 20.659000396728516 0.3479999899864197 75.0999984741211 1.7999999523162842 0.0 1.2492988109588623 0.06491000205278397 -11.232837677001953 9.779994010925293 -18.723997116088867 0.6979961395263672 1.5499999523162842 14.650861740112305 1.7667527198791504 1.1398404836654663
329.01697 -7.327204 J215604.07-071937.9 A2399 19.726999282836914 0.26200002431869507 61.70000076293945 0.4000000059604645 1.0 1.0989010334014893 0.05787000060081482 -11.823074340820312 10.852575302124023 -20.92999839782715 0.5229988098144531 1.5499999523162842 14.650861740112305 2.5438356399536133 1.6411842107772827
329.57532 -7.3742113 J215818.07-072227.2 A2399 21.47800064086914 0.3309999704360962 122.0 2.700000047683716 1.0 1.1957573890686035 0.057679999619722366 -10.79866886138916 9.38274097442627 -18.222999572753906 0.4740009307861328 1.5499999523162842 14.650861740112305 2.0222461223602295 1.3046748638153076
329.31628 -7.3168955 J215715.91-071900.8 A2399 20.93899917602539 0.20999997854232788 36.099998474121094 5.099999904632568 1.0 1.4156666994094849 0.05846000090241432 -10.514183044433594 9.360307693481445 -17.882999420166016 0.6389999389648438 1.5499999523162842 14.650861740112305 2.0905697345733643 1.348754644393921
329.6093 -7.364869 J215826.23-072153.5 A2399 20.382999420166016 0.09600001573562622 16.799999237060547 3.9000000953674316 1.0 1.0928961038589478 0.06072999909520149 -12.218571662902832 11.002360343933105 -21.524002075195312 0.5670013427734375 1.5499999523162842 14.650861740112305 2.124262809753418 1.3704922199249268
330.8983 -6.1414404 J220335.59-060829.2 A2415 19.46500015258789 0.21399998664855957 17.299999237060547 -0.4000000059604645 1.0 1.080730676651001 0.0641700029373169 -11.528970718383789 10.535280227661133 -20.7919979095459 0.46599578857421875 1.190000057220459 14.306499481201172 3.224914789199829 2.710012435913086
331.48602 -5.8669586 J220556.65-055201.0 A2415 18.9689998626709 0.10699999332427979 13.399999618530273 -2.299999952316284 1.0 1.432184100151062 0.05738786980509758 -11.252238273620605 10.376555442810059 -20.32200050354004 0.4869976043701172 1.190000057220459 14.306499481201172 1.1710845232009888 0.9841046929359436
331.08566 -5.865088 J220420.54-055153.9 A2415 18.577999114990234 0.20200002193450928 122.9000015258789 -3.799999952316284 1.0 1.3387500047683716 0.05659731850028038 -12.022658348083496 10.751398086547852 -20.711000442504883 0.8990001678466797 1.190000057220459 14.306499481201172 1.8208996057510376 1.5301676988601685
331.16156 -5.8639545 J220438.77-055149.6 A2415 21.27400016784668 0.28700000047683716 78.4000015258789 -4.699999809265137 0.0 1.668823003768921 0.056820809841156006 -9.813516616821289 8.482766151428223 -17.623001098632812 0.36699867248535156 1.190000057220459 14.306499481201172 1.5732624530792236 1.3220692873001099
331.21152 -5.8336043 J220450.77-055000.3 A2415 21.458999633789062 0.14800000190734863 25.399999618530273 -3.0999999046325684 1.0 1.489612102508545 0.0569809190928936 -10.959382057189941 9.155527114868164 -18.06399917602539 0.6369991302490234 1.190000057220459 14.306499481201172 1.329964518547058 1.1176172494888306
331.5811 -5.794796 J220619.46-054740.9 A2415 19.351999282836914 0.07400000095367432 160.6999969482422 -4.0 0.0 1.2512340545654297 0.05403999984264374 -11.423019409179688 10.197807312011719 -19.630001068115234 0.4510021209716797 1.190000057220459 14.306499481201172 1.080952525138855 0.9083634614944458
331.44116 -5.750701 J220545.85-054502.4 A2415 21.30900001525879 0.25 171.8000030517578 0.4000000059604645 1.0 1.4667340517044067 0.05659065023064613 -10.77949333190918 8.644248962402344 -18.259002685546875 0.24200057983398438 1.190000057220459 14.306499481201172 0.6383063793182373 0.5363919138908386
331.29456 -5.7209845 J220510.65-054315.3 A2415 20.989999771118164 0.014999985694885254 59.5 1.600000023841858 1.0 1.3117300271987915 0.055709999054670334 -12.763994216918945 10.062247276306152 -19.548002243041992 0.5660037994384766 1.190000057220459 14.306499481201172 0.7311861515045166 0.6144421696662903
331.2835 -5.708002 J220508.02-054228.6 A2415 20.29800033569336 0.12400001287460327 139.60000610351562 -4.199999809265137 1.0 1.4563480615615845 0.05572338029742241 -11.422405242919922 9.825772285461426 -18.951000213623047 0.7520008087158203 1.190000057220459 14.306499481201172 0.7311233878135681 0.6143894195556641
331.5014 -5.6540084 J220600.32-053914.1 A2415 20.32900047302246 0.24000000953674316 3.9000000953674316 -1.399999976158142 1.0 1.5017800331115723 0.06220452859997749 -10.807646751403809 9.635154724121094 -19.211000442504883 0.5679988861083984 1.190000057220459 14.306499481201172 0.41690850257873535 0.3503432869911194
331.61633 -5.6319475 J220627.91-053754.9 A2415 20.802000045776367 0.09600001573562622 103.5 0.8999999761581421 0.0 1.3516019582748413 0.05891893059015274 -11.691707611083984 10.190423965454102 -19.562999725341797 0.5329990386962891 1.190000057220459 14.306499481201172 0.8620773553848267 0.7244347333908081
331.47363 -5.633167 J220553.66-053759.1 A2415 21.323999404907227 0.3579999804496765 2.5999999046325684 0.20000000298023224 1.0 1.340051531791687 0.06136000156402588 -11.30967903137207 9.677504539489746 -18.819002151489258 0.3900012969970703 1.190000057220459 14.306499481201172 0.2688853442668915 0.225954070687294
331.5016 -5.603185 J220600.36-053611.4 A2415 20.381999969482422 0.48000001907348633 116.5 0.699999988079071 1.0 1.4790639877319336 0.055900171399116516 -11.007898330688477 9.765044212341309 -18.983999252319336 0.7469997406005859 1.190000057220459 14.306499481201172 0.35989710688591003 0.3024345338344574
331.63602 -5.581769 J220632.64-053454.4 A2415 19.1560001373291 0.06400001049041748 10.199999809265137 2.299999952316284 0.0 1.1025358438491821 0.05936000123620033 -13.382261276245117 11.411806106567383 -21.654998779296875 0.6460018157958984 1.190000057220459 14.306499481201172 0.9447370767593384 0.7938967347145081
331.48254 -5.527154 J220555.80-053137.5 A2415 19.576000213623047 0.13200002908706665 127.69999694824219 -4.800000190734863 1.0 1.2512340545654297 0.0575999990105629 -11.02507495880127 10.133471488952637 -18.857999801635742 0.542999267578125 1.190000057220459 14.306499481201172 0.4368579685688019 0.3671075403690338
331.42004 -5.524169 J220540.80-053126.6 A2415 20.54199981689453 0.0899999737739563 5.300000190734863 -4.400000095367432 1.0 1.6570059061050415 0.05962274968624115 -11.87204360961914 9.867432594299316 -19.036998748779297 0.7199974060058594 1.190000057220459 14.306499481201172 0.3504890501499176 0.29452863335609436
331.63837 -5.5023375 J220633.21-053008.4 A2415 21.20599937438965 0.45399999618530273 129.8000030517578 -0.30000001192092896 1.0 1.2753801345825195 0.0587100014090538 -9.996895790100098 9.43337631225586 -18.095001220703125 0.5310020446777344 1.190000057220459 14.306499481201172 1.0485135316848755 0.8811038732528687
331.33694 -5.442672 J220520.83-052632.8 A2415 21.253999710083008 0.34700000286102295 1.899999976158142 4.0 1.0 1.2264024019241333 0.06244000047445297 -11.824408531188965 9.97134017944336 -19.35700035095215 0.680999755859375 1.190000057220459 14.306499481201172 0.7846809029579163 0.659395694732666
331.54773 -5.4189196 J220611.45-052507.8 A2415 19.027000427246094 0.1119999885559082 137.8000030517578 1.5 1.0 1.1522941589355469 0.06230999901890755 -11.323965072631836 10.818310737609863 -20.404001235961914 0.6239986419677734 1.190000057220459 14.306499481201172 0.9803498983383179 0.8238234519958496
331.8236 -5.400545 J220717.66-052402.0 A2415 21.441999435424805 0.12800002098083496 11.0 1.7999999523162842 1.0 1.2076128721237183 0.05716999992728233 -12.943643569946289 10.02071762084961 -18.22300148010254 0.9510021209716797 1.190000057220459 14.306499481201172 1.9589776992797852 1.6461998224258423
331.0278 -5.239147 J220406.67-051420.9 A2415 21.340999603271484 0.18800002336502075 125.0 2.700000047683716 1.0 1.1961722373962402 0.06360000371932983 -11.140554428100586 9.620466232299805 -19.052000045776367 0.5100021362304688 1.190000057220459 14.306499481201172 2.3097333908081055 1.9409525394439697
338.8445 1.0326947 J223522.68+010157.7 A2457 20.125999450683594 0.42000001668930054 80.9000015258789 -0.20000000298023224 1.0 1.2113914489746094 0.05868000164628029 -9.90418815612793 9.879239082336426 -20.118999481201172 0.6529979705810547 1.309999942779541 14.432079315185547 2.0181729793548584 1.5405900478363037
339.01608 1.0722358 J223603.83+010420.5 A2457 21.02400016784668 0.078000009059906 83.5999984741211 5.099999904632568 1.0 1.1498217582702637 0.06069000065326691 -9.470501899719238 9.413785934448242 -19.079998016357422 0.7999973297119141 1.309999942779541 14.432079315185547 1.8649566173553467 1.4236310720443726
338.50632 1.0944875 J223401.53+010540.1 A2457 20.03499984741211 0.18300002813339233 95.5 -0.4000000059604645 1.0 1.1305463314056396 0.057020001113414764 -12.852217674255371 10.479334831237793 -20.03299903869629 1.0579986572265625 1.309999942779541 14.432079315185547 2.503763198852539 1.9112696647644043
338.97336 1.1057175 J223553.59+010620.6 A2457 18.708999633789062 0.12599998712539673 151.3000030517578 -3.9000000953674316 1.0 1.1035043001174927 0.06120999902486801 -10.563501358032227 10.565650939941406 -20.966999053955078 0.9279994964599609 1.309999942779541 14.432079315185547 1.6854759454727173 1.2866228818893433
338.82495 1.1300025 J223518.00+010748.5 A2457 20.80299949645996 0.3840000033378601 97.30000305175781 5.199999809265137 1.0 1.1035043001174927 0.05857999995350838 -11.899704933166504 10.484796524047852 -20.51099967956543 0.6470012664794922 1.309999942779541 14.432079315185547 1.617383360862732 1.2346436977386475
339.26898 1.12526 J223704.54+010731.0 A2457 20.160999298095703 0.18400001525878906 18.700000762939453 -0.8999999761581421 1.0 1.1377780437469482 0.058240000158548355 -10.930624008178711 10.140121459960938 -20.019001007080078 0.8840007781982422 1.309999942779541 14.432079315185547 2.2053310871124268 1.683458924293518
339.02454 1.2068148 J223605.90+011224.7 A2457 21.267000198364258 0.2580000162124634 98.80000305175781 -4.0 1.0 74.99250030517578 0.05613730102777481 -10.176206588745117 9.19204044342041 -17.071998596191406 0.6579971313476562 1.309999942779541 14.432079315185547 1.307312250137329 0.9979482889175415
339.02454 1.2068148 J223605.90+011224.7 A2457 21.267000198364258 0.2580000162124634 98.80000305175781 -4.0 1.0 74.99250030517578 0.05613730102777481 -10.176206588745117 9.19204044342041 -17.071998596191406 0.6579971313476562 1.309999942779541 14.432079315185547 1.307312250137329 0.9979482889175415
339.02454 1.2068148 J223605.90+011224.7 A2457 21.267000198364258 0.2580000162124634 98.80000305175781 -4.0 1.0 74.99250030517578 0.05613730102777481 -10.176206588745117 9.19204044342041 -17.071998596191406 0.6579971313476562 1.309999942779541 14.432079315185547 1.307312250137329 0.9979482889175415
339.02454 1.2068148 J223605.90+011224.7 A2457 21.267000198364258 0.2580000162124634 98.80000305175781 -4.0 1.0 74.99250030517578 0.05613730102777481 -10.176206588745117 9.19204044342041 -17.071998596191406 0.6579971313476562 1.309999942779541 14.432079315185547 1.307312250137329 0.9979482889175415
339.02454 1.2068148 J223605.90+011224.7 A2457 21.267000198364258 0.2580000162124634 98.80000305175781 -4.0 1.0 74.99250030517578 0.05613730102777481 -10.176206588745117 9.19204044342041 -17.071998596191406 0.6579971313476562 1.309999942779541 14.432079315185547 1.307312250137329 0.9979482889175415
339.02454 1.2068148 J223605.90+011224.7 A2457 21.267000198364258 0.2580000162124634 98.80000305175781 -4.0 1.0 74.99250030517578 0.05613730102777481 -10.176206588745117 9.19204044342041 -17.071998596191406 0.6579971313476562 1.309999942779541 14.432079315185547 1.307312250137329 0.9979482889175415
339.02454 1.2068148 J223605.90+011224.7 A2457 21.267000198364258 0.2580000162124634 98.80000305175781 -4.0 1.0 74.99250030517578 0.05613730102777481 -10.176206588745117 9.19204044342041 -17.071998596191406 0.6579971313476562 1.309999942779541 14.432079315185547 1.307312250137329 0.9979482889175415
339.02454 1.2068148 J223605.90+011224.7 A2457 21.267000198364258 0.2580000162124634 98.80000305175781 -4.0 1.0 74.99250030517578 0.05613730102777481 -10.176206588745117 9.19204044342041 -17.071998596191406 0.6579971313476562 1.309999942779541 14.432079315185547 1.307312250137329 0.9979482889175415
339.02454 1.2068148 J223605.90+011224.7 A2457 21.267000198364258 0.2580000162124634 98.80000305175781 -4.0 1.0 74.99250030517578 0.05613730102777481 -10.176206588745117 9.19204044342041 -17.071998596191406 0.6579971313476562 1.309999942779541 14.432079315185547 1.307312250137329 0.9979482889175415
339.02454 1.2068148 J223605.90+011224.7 A2457 21.267000198364258 0.2580000162124634 98.80000305175781 -4.0 1.0 74.99250030517578 0.05613730102777481 -10.176206588745117 9.19204044342041 -17.071998596191406 0.6579971313476562 1.309999942779541 14.432079315185547 1.307312250137329 0.9979482889175415
339.02454 1.2068148 J223605.90+011224.7 A2457 21.267000198364258 0.2580000162124634 98.80000305175781 -4.0 1.0 74.99250030517578 0.05613730102777481 -10.176206588745117 9.19204044342041 -17.071998596191406 0.6579971313476562 1.309999942779541 14.432079315185547 1.307312250137329 0.9979482889175415
339.02454 1.2068148 J223605.90+011224.7 A2457 21.267000198364258 0.2580000162124634 98.80000305175781 -4.0 1.0 74.99250030517578 0.05613730102777481 -10.176206588745117 9.19204044342041 -17.071998596191406 0.6579971313476562 1.309999942779541 14.432079315185547 1.307312250137329 0.9979482889175415
339.02454 1.2068148 J223605.90+011224.7 A2457 21.267000198364258 0.2580000162124634 98.80000305175781 -4.0 1.0 74.99250030517578 0.05613730102777481 -10.176206588745117 9.19204044342041 -17.071998596191406 0.6579971313476562 1.309999942779541 14.432079315185547 1.307312250137329 0.9979482889175415
339.02454 1.2068148 J223605.90+011224.7 A2457 21.267000198364258 0.2580000162124634 98.80000305175781 -4.0 1.0 74.99250030517578 0.05613730102777481 -10.176206588745117 9.19204044342041 -17.071998596191406 0.6579971313476562 1.309999942779541 14.432079315185547 1.307312250137329 0.9979482889175415
339.02454 1.2068148 J223605.90+011224.7 A2457 21.267000198364258 0.2580000162124634 98.80000305175781 -4.0 1.0 74.99250030517578 0.05613730102777481 -10.176206588745117 9.19204044342041 -17.071998596191406 0.6579971313476562 1.309999942779541 14.432079315185547 1.307312250137329 0.9979482889175415
339.02454 1.2068148 J223605.90+011224.7 A2457 21.267000198364258 0.2580000162124634 98.80000305175781 -4.0 1.0 74.99250030517578 0.05613730102777481 -10.176206588745117 9.19204044342041 -17.071998596191406 0.6579971313476562 1.309999942779541 14.432079315185547 1.307312250137329 0.9979482889175415
339.02454 1.2068148 J223605.90+011224.7 A2457 21.267000198364258 0.2580000162124634 98.80000305175781 -4.0 1.0 74.99250030517578 0.05613730102777481 -10.176206588745117 9.19204044342041 -17.071998596191406 0.6579971313476562 1.309999942779541 14.432079315185547 1.307312250137329 0.9979482889175415
339.02454 1.2068148 J223605.90+011224.7 A2457 21.267000198364258 0.2580000162124634 98.80000305175781 -4.0 1.0 74.99250030517578 0.05613730102777481 -10.176206588745117 9.19204044342041 -17.071998596191406 0.6579971313476562 1.309999942779541 14.432079315185547 1.307312250137329 0.9979482889175415
339.02454 1.2068148 J223605.90+011224.7 A2457 21.267000198364258 0.2580000162124634 98.80000305175781 -4.0 1.0 74.99250030517578 0.05613730102777481 -10.176206588745117 9.19204044342041 -17.071998596191406 0.6579971313476562 1.309999942779541 14.432079315185547 1.307312250137329 0.9979482889175415
339.02454 1.2068148 J223605.90+011224.7 A2457 21.267000198364258 0.2580000162124634 98.80000305175781 -4.0 1.0 74.99250030517578 0.05613730102777481 -10.176206588745117 9.19204044342041 -17.071998596191406 0.6579971313476562 1.309999942779541 14.432079315185547 1.307312250137329 0.9979482889175415
339.02454 1.2068148 J223605.90+011224.7 A2457 21.267000198364258 0.2580000162124634 98.80000305175781 -4.0 1.0 74.99250030517578 0.05613730102777481 -10.176206588745117 9.19204044342041 -17.071998596191406 0.6579971313476562 1.309999942779541 14.432079315185547 1.307312250137329 0.9979482889175415
339.02454 1.2068148 J223605.90+011224.7 A2457 21.267000198364258 0.2580000162124634 98.80000305175781 -4.0 1.0 74.99250030517578 0.05613730102777481 -10.176206588745117 9.19204044342041 -17.071998596191406 0.6579971313476562 1.309999942779541 14.432079315185547 1.307312250137329 0.9979482889175415
339.02454 1.2068148 J223605.90+011224.7 A2457 21.267000198364258 0.2580000162124634 98.80000305175781 -4.0 1.0 74.99250030517578 0.05613730102777481 -10.176206588745117 9.19204044342041 -17.071998596191406 0.6579971313476562 1.309999942779541 14.432079315185547 1.307312250137329 0.9979482889175415
339.02454 1.2068148 J223605.90+011224.7 A2457 21.267000198364258 0.2580000162124634 98.80000305175781 -4.0 1.0 74.99250030517578 0.05613730102777481 -10.176206588745117 9.19204044342041 -17.071998596191406 0.6579971313476562 1.309999942779541 14.432079315185547 1.307312250137329 0.9979482889175415
339.02454 1.2068148 J223605.90+011224.7 A2457 21.267000198364258 0.2580000162124634 98.80000305175781 -4.0 1.0 74.99250030517578 0.05613730102777481 -10.176206588745117 9.19204044342041 -17.071998596191406 0.6579971313476562 1.309999942779541 14.432079315185547 1.307312250137329 0.9979482889175415
339.02454 1.2068148 J223605.90+011224.7 A2457 21.267000198364258 0.2580000162124634 98.80000305175781 -4.0 1.0 74.99250030517578 0.05613730102777481 -10.176206588745117 9.19204044342041 -17.071998596191406 0.6579971313476562 1.309999942779541 14.432079315185547 1.307312250137329 0.9979482889175415
339.02454 1.2068148 J223605.90+011224.7 A2457 21.267000198364258 0.2580000162124634 98.80000305175781 -4.0 1.0 74.99250030517578 0.05613730102777481 -10.176206588745117 9.19204044342041 -17.071998596191406 0.6579971313476562 1.309999942779541 14.432079315185547 1.307312250137329 0.9979482889175415
339.02454 1.2068148 J223605.90+011224.7 A2457 21.267000198364258 0.2580000162124634 98.80000305175781 -4.0 1.0 74.99250030517578 0.05613730102777481 -10.176206588745117 9.19204044342041 -17.071998596191406 0.6579971313476562 1.309999942779541 14.432079315185547 1.307312250137329 0.9979482889175415
339.02454 1.2068148 J223605.90+011224.7 A2457 21.267000198364258 0.2580000162124634 98.80000305175781 -4.0 1.0 74.99250030517578 0.05613730102777481 -10.176206588745117 9.19204044342041 -17.071998596191406 0.6579971313476562 1.309999942779541 14.432079315185547 1.307312250137329 0.9979482889175415
339.02454 1.2068148 J223605.90+011224.7 A2457 21.267000198364258 0.2580000162124634 98.80000305175781 -4.0 1.0 74.99250030517578 0.05613730102777481 -10.176206588745117 9.19204044342041 -17.071998596191406 0.6579971313476562 1.309999942779541 14.432079315185547 1.307312250137329 0.9979482889175415
339.02454 1.2068148 J223605.90+011224.7 A2457 21.267000198364258 0.2580000162124634 98.80000305175781 -4.0 1.0 74.99250030517578 0.05613730102777481 -10.176206588745117 9.19204044342041 -17.071998596191406 0.6579971313476562 1.309999942779541 14.432079315185547 1.307312250137329 0.9979482889175415
339.02454 1.2068148 J223605.90+011224.7 A2457 21.267000198364258 0.2580000162124634 98.80000305175781 -4.0 1.0 74.99250030517578 0.05613730102777481 -10.176206588745117 9.19204044342041 -17.071998596191406 0.6579971313476562 1.309999942779541 14.432079315185547 1.307312250137329 0.9979482889175415
339.02454 1.2068148 J223605.90+011224.7 A2457 21.267000198364258 0.2580000162124634 98.80000305175781 -4.0 1.0 74.99250030517578 0.05613730102777481 -10.176206588745117 9.19204044342041 -17.071998596191406 0.6579971313476562 1.309999942779541 14.432079315185547 1.307312250137329 0.9979482889175415
339.02454 1.2068148 J223605.90+011224.7 A2457 21.267000198364258 0.2580000162124634 98.80000305175781 -4.0 1.0 74.99250030517578 0.05613730102777481 -10.176206588745117 9.19204044342041 -17.071998596191406 0.6579971313476562 1.309999942779541 14.432079315185547 1.307312250137329 0.9979482889175415
339.02454 1.2068148 J223605.90+011224.7 A2457 21.267000198364258 0.2580000162124634 98.80000305175781 -4.0 1.0 74.99250030517578 0.05613730102777481 -10.176206588745117 9.19204044342041 -17.071998596191406 0.6579971313476562 1.309999942779541 14.432079315185547 1.307312250137329 0.9979482889175415
339.02454 1.2068148 J223605.90+011224.7 A2457 21.267000198364258 0.2580000162124634 98.80000305175781 -4.0 1.0 74.99250030517578 0.05613730102777481 -10.176206588745117 9.19204044342041 -17.071998596191406 0.6579971313476562 1.309999942779541 14.432079315185547 1.307312250137329 0.9979482889175415
339.02454 1.2068148 J223605.90+011224.7 A2457 21.267000198364258 0.2580000162124634 98.80000305175781 -4.0 1.0 74.99250030517578 0.05613730102777481 -10.176206588745117 9.19204044342041 -17.071998596191406 0.6579971313476562 1.309999942779541 14.432079315185547 1.307312250137329 0.9979482889175415
339.02454 1.2068148 J223605.90+011224.7 A2457 21.267000198364258 0.2580000162124634 98.80000305175781 -4.0 1.0 74.99250030517578 0.05613730102777481 -10.176206588745117 9.19204044342041 -17.071998596191406 0.6579971313476562 1.309999942779541 14.432079315185547 1.307312250137329 0.9979482889175415
339.02454 1.2068148 J223605.90+011224.7 A2457 21.267000198364258 0.2580000162124634 98.80000305175781 -4.0 1.0 74.99250030517578 0.05613730102777481 -10.176206588745117 9.19204044342041 -17.071998596191406 0.6579971313476562 1.309999942779541 14.432079315185547 1.307312250137329 0.9979482889175415
339.02454 1.2068148 J223605.90+011224.7 A2457 21.267000198364258 0.2580000162124634 98.80000305175781 -4.0 1.0 74.99250030517578 0.05613730102777481 -10.176206588745117 9.19204044342041 -17.071998596191406 0.6579971313476562 1.309999942779541 14.432079315185547 1.307312250137329 0.9979482889175415
339.02454 1.2068148 J223605.90+011224.7 A2457 21.267000198364258 0.2580000162124634 98.80000305175781 -4.0 1.0 74.99250030517578 0.05613730102777481 -10.176206588745117 9.19204044342041 -17.071998596191406 0.6579971313476562 1.309999942779541 14.432079315185547 1.307312250137329 0.9979482889175415
339.02454 1.2068148 J223605.90+011224.7 A2457 21.267000198364258 0.2580000162124634 98.80000305175781 -4.0 1.0 74.99250030517578 0.05613730102777481 -10.176206588745117 9.19204044342041 -17.071998596191406 0.6579971313476562 1.309999942779541 14.432079315185547 1.307312250137329 0.9979482889175415
339.02454 1.2068148 J223605.90+011224.7 A2457 21.267000198364258 0.2580000162124634 98.80000305175781 -4.0 1.0 74.99250030517578 0.05613730102777481 -10.176206588745117 9.19204044342041 -17.071998596191406 0.6579971313476562 1.309999942779541 14.432079315185547 1.307312250137329 0.9979482889175415
339.02454 1.2068148 J223605.90+011224.7 A2457 21.267000198364258 0.2580000162124634 98.80000305175781 -4.0 1.0 74.99250030517578 0.05613730102777481 -10.176206588745117 9.19204044342041 -17.071998596191406 0.6579971313476562 1.309999942779541 14.432079315185547 1.307312250137329 0.9979482889175415
339.02454 1.2068148 J223605.90+011224.7 A2457 21.267000198364258 0.2580000162124634 98.80000305175781 -4.0 1.0 74.99250030517578 0.05613730102777481 -10.176206588745117 9.19204044342041 -17.071998596191406 0.6579971313476562 1.309999942779541 14.432079315185547 1.307312250137329 0.9979482889175415
339.02454 1.2068148 J223605.90+011224.7 A2457 21.267000198364258 0.2580000162124634 98.80000305175781 -4.0 1.0 74.99250030517578 0.05613730102777481 -10.176206588745117 9.19204044342041 -17.071998596191406 0.6579971313476562 1.309999942779541 14.432079315185547 1.307312250137329 0.9979482889175415
339.02454 1.2068148 J223605.90+011224.7 A2457 21.267000198364258 0.2580000162124634 98.80000305175781 -4.0 1.0 74.99250030517578 0.05613730102777481 -10.176206588745117 9.19204044342041 -17.071998596191406 0.6579971313476562 1.309999942779541 14.432079315185547 1.307312250137329 0.9979482889175415
339.02454 1.2068148 J223605.90+011224.7 A2457 21.267000198364258 0.2580000162124634 98.80000305175781 -4.0 1.0 74.99250030517578 0.05613730102777481 -10.176206588745117 9.19204044342041 -17.071998596191406 0.6579971313476562 1.309999942779541 14.432079315185547 1.307312250137329 0.9979482889175415
339.02454 1.2068148 J223605.90+011224.7 A2457 21.267000198364258 0.2580000162124634 98.80000305175781 -4.0 1.0 74.99250030517578 0.05613730102777481 -10.176206588745117 9.19204044342041 -17.071998596191406 0.6579971313476562 1.309999942779541 14.432079315185547 1.307312250137329 0.9979482889175415
339.02454 1.2068148 J223605.90+011224.7 A2457 21.267000198364258 0.2580000162124634 98.80000305175781 -4.0 1.0 74.99250030517578 0.05613730102777481 -10.176206588745117 9.19204044342041 -17.071998596191406 0.6579971313476562 1.309999942779541 14.432079315185547 1.307312250137329 0.9979482889175415
339.02454 1.2068148 J223605.90+011224.7 A2457 21.267000198364258 0.2580000162124634 98.80000305175781 -4.0 1.0 74.99250030517578 0.05613730102777481 -10.176206588745117 9.19204044342041 -17.071998596191406 0.6579971313476562 1.309999942779541 14.432079315185547 1.307312250137329 0.9979482889175415
339.02454 1.2068148 J223605.90+011224.7 A2457 21.267000198364258 0.2580000162124634 98.80000305175781 -4.0 1.0 74.99250030517578 0.05613730102777481 -10.176206588745117 9.19204044342041 -17.071998596191406 0.6579971313476562 1.309999942779541 14.432079315185547 1.307312250137329 0.9979482889175415
339.02454 1.2068148 J223605.90+011224.7 A2457 21.267000198364258 0.2580000162124634 98.80000305175781 -4.0 1.0 74.99250030517578 0.05613730102777481 -10.176206588745117 9.19204044342041 -17.071998596191406 0.6579971313476562 1.309999942779541 14.432079315185547 1.307312250137329 0.9979482889175415
339.02454 1.2068148 J223605.90+011224.7 A2457 21.267000198364258 0.2580000162124634 98.80000305175781 -4.0 1.0 74.99250030517578 0.05613730102777481 -10.176206588745117 9.19204044342041 -17.071998596191406 0.6579971313476562 1.309999942779541 14.432079315185547 1.307312250137329 0.9979482889175415
339.02454 1.2068148 J223605.90+011224.7 A2457 21.267000198364258 0.2580000162124634 98.80000305175781 -4.0 1.0 74.99250030517578 0.05613730102777481 -10.176206588745117 9.19204044342041 -17.071998596191406 0.6579971313476562 1.309999942779541 14.432079315185547 1.307312250137329 0.9979482889175415
339.02454 1.2068148 J223605.90+011224.7 A2457 21.267000198364258 0.2580000162124634 98.80000305175781 -4.0 1.0 74.99250030517578 0.05613730102777481 -10.176206588745117 9.19204044342041 -17.071998596191406 0.6579971313476562 1.309999942779541 14.432079315185547 1.307312250137329 0.9979482889175415
339.02454 1.2068148 J223605.90+011224.7 A2457 21.267000198364258 0.2580000162124634 98.80000305175781 -4.0 1.0 74.99250030517578 0.05613730102777481 -10.176206588745117 9.19204044342041 -17.071998596191406 0.6579971313476562 1.309999942779541 14.432079315185547 1.307312250137329 0.9979482889175415
339.02454 1.2068148 J223605.90+011224.7 A2457 21.267000198364258 0.2580000162124634 98.80000305175781 -4.0 1.0 74.99250030517578 0.05613730102777481 -10.176206588745117 9.19204044342041 -17.071998596191406 0.6579971313476562 1.309999942779541 14.432079315185547 1.307312250137329 0.9979482889175415
339.02454 1.2068148 J223605.90+011224.7 A2457 21.267000198364258 0.2580000162124634 98.80000305175781 -4.0 1.0 74.99250030517578 0.05613730102777481 -10.176206588745117 9.19204044342041 -17.071998596191406 0.6579971313476562 1.309999942779541 14.432079315185547 1.307312250137329 0.9979482889175415
339.02454 1.2068148 J223605.90+011224.7 A2457 21.267000198364258 0.2580000162124634 98.80000305175781 -4.0 1.0 74.99250030517578 0.05613730102777481 -10.176206588745117 9.19204044342041 -17.071998596191406 0.6579971313476562 1.309999942779541 14.432079315185547 1.307312250137329 0.9979482889175415
339.02454 1.2068148 J223605.90+011224.7 A2457 21.267000198364258 0.2580000162124634 98.80000305175781 -4.0 1.0 74.99250030517578 0.05613730102777481 -10.176206588745117 9.19204044342041 -17.071998596191406 0.6579971313476562 1.309999942779541 14.432079315185547 1.307312250137329 0.9979482889175415
339.02454 1.2068148 J223605.90+011224.7 A2457 21.267000198364258 0.2580000162124634 98.80000305175781 -4.0 1.0 74.99250030517578 0.05613730102777481 -10.176206588745117 9.19204044342041 -17.071998596191406 0.6579971313476562 1.309999942779541 14.432079315185547 1.307312250137329 0.9979482889175415
339.02454 1.2068148 J223605.90+011224.7 A2457 21.267000198364258 0.2580000162124634 98.80000305175781 -4.0 1.0 74.99250030517578 0.05613730102777481 -10.176206588745117 9.19204044342041 -17.071998596191406 0.6579971313476562 1.309999942779541 14.432079315185547 1.307312250137329 0.9979482889175415
339.02454 1.2068148 J223605.90+011224.7 A2457 21.267000198364258 0.2580000162124634 98.80000305175781 -4.0 1.0 74.99250030517578 0.05613730102777481 -10.176206588745117 9.19204044342041 -17.071998596191406 0.6579971313476562 1.309999942779541 14.432079315185547 1.307312250137329 0.9979482889175415
339.02454 1.2068148 J223605.90+011224.7 A2457 21.267000198364258 0.2580000162124634 98.80000305175781 -4.0 1.0 74.99250030517578 0.05613730102777481 -10.176206588745117 9.19204044342041 -17.071998596191406 0.6579971313476562 1.309999942779541 14.432079315185547 1.307312250137329 0.9979482889175415
339.02454 1.2068148 J223605.90+011224.7 A2457 21.267000198364258 0.2580000162124634 98.80000305175781 -4.0 1.0 74.99250030517578 0.05613730102777481 -10.176206588745117 9.19204044342041 -17.071998596191406 0.6579971313476562 1.309999942779541 14.432079315185547 1.307312250137329 0.9979482889175415
339.02454 1.2068148 J223605.90+011224.7 A2457 21.267000198364258 0.2580000162124634 98.80000305175781 -4.0 1.0 74.99250030517578 0.05613730102777481 -10.176206588745117 9.19204044342041 -17.071998596191406 0.6579971313476562 1.309999942779541 14.432079315185547 1.307312250137329 0.9979482889175415
339.02454 1.2068148 J223605.90+011224.7 A2457 21.267000198364258 0.2580000162124634 98.80000305175781 -4.0 1.0 74.99250030517578 0.05613730102777481 -10.176206588745117 9.19204044342041 -17.071998596191406 0.6579971313476562 1.309999942779541 14.432079315185547 1.307312250137329 0.9979482889175415
339.02454 1.2068148 J223605.90+011224.7 A2457 21.267000198364258 0.2580000162124634 98.80000305175781 -4.0 1.0 74.99250030517578 0.05613730102777481 -10.176206588745117 9.19204044342041 -17.071998596191406 0.6579971313476562 1.309999942779541 14.432079315185547 1.307312250137329 0.9979482889175415
339.02454 1.2068148 J223605.90+011224.7 A2457 21.267000198364258 0.2580000162124634 98.80000305175781 -4.0 1.0 74.99250030517578 0.05613730102777481 -10.176206588745117 9.19204044342041 -17.071998596191406 0.6579971313476562 1.309999942779541 14.432079315185547 1.307312250137329 0.9979482889175415
339.02454 1.2068148 J223605.90+011224.7 A2457 21.267000198364258 0.2580000162124634 98.80000305175781 -4.0 1.0 74.99250030517578 0.05613730102777481 -10.176206588745117 9.19204044342041 -17.071998596191406 0.6579971313476562 1.309999942779541 14.432079315185547 1.307312250137329 0.9979482889175415
339.02454 1.2068148 J223605.90+011224.7 A2457 21.267000198364258 0.2580000162124634 98.80000305175781 -4.0 1.0 74.99250030517578 0.05613730102777481 -10.176206588745117 9.19204044342041 -17.071998596191406 0.6579971313476562 1.309999942779541 14.432079315185547 1.307312250137329 0.9979482889175415
339.02454 1.2068148 J223605.90+011224.7 A2457 21.267000198364258 0.2580000162124634 98.80000305175781 -4.0 1.0 74.99250030517578 0.05613730102777481 -10.176206588745117 9.19204044342041 -17.071998596191406 0.6579971313476562 1.309999942779541 14.432079315185547 1.307312250137329 0.9979482889175415
339.02454 1.2068148 J223605.90+011224.7 A2457 21.267000198364258 0.2580000162124634 98.80000305175781 -4.0 1.0 74.99250030517578 0.05613730102777481 -10.176206588745117 9.19204044342041 -17.071998596191406 0.6579971313476562 1.309999942779541 14.432079315185547 1.307312250137329 0.9979482889175415
339.29242 1.210297 J223710.17+011237.0 A2457 20.756999969482422 0.2279999852180481 143.10000610351562 -2.0 0.0 1.272504210472107 0.057999998331069946 -10.902469635009766 9.871527671813965 -19.020000457763672 0.8619976043701172 1.309999942779541 14.432079315185547 2.035989284515381 1.5541902780532837
338.99298 1.2277238 J223558.32+011340.1 A2457 20.29199981689453 0.06999999284744263 156.3000030517578 0.800000011920929 1.0 1.128156304359436 0.060910001397132874 -11.738473892211914 10.29159927368164 -19.60799789428711 0.9290008544921875 1.309999942779541 14.432079315185547 1.1766316890716553 0.8981921076774597
339.27072 1.243165 J223704.97+011435.5 A2457 19.37299919128418 0.13700002431869507 44.400001525878906 -3.799999952316284 1.0 1.094600796699524 0.057920001447200775 -12.456230163574219 10.670578002929688 -20.279998779296875 1.1020011901855469 1.309999942779541 14.432079315185547 1.8745375871658325 1.430944800376892
338.8223 1.3406539 J223517.34+012026.2 A2457 21.21500015258789 0.47600001096725464 69.30000305175781 0.30000001192092896 1.0 1.3490688800811768 0.06055999919772148 -11.318879127502441 9.195879936218262 -18.393999099731445 0.6879997253417969 1.309999942779541 14.432079315185547 0.7671584486961365 0.5856171250343323
338.74173 1.350123 J223458.03+012100.7 A2457 19.219999313354492 0.1850000023841858 66.69999694824219 -4.5 1.0 16.100000381469727 0.05795188993215561 -12.849367141723633 10.36827564239502 -19.986000061035156 0.805999755859375 1.309999942779541 14.432079315185547 0.9834374189376831 0.7507155537605286
338.74173 1.350123 J223458.03+012100.7 A2457 19.219999313354492 0.1850000023841858 66.69999694824219 -4.5 1.0 16.100000381469727 0.05795188993215561 -12.849367141723633 10.36827564239502 -19.986000061035156 0.805999755859375 1.309999942779541 14.432079315185547 0.9834374189376831 0.7507155537605286
338.74173 1.350123 J223458.03+012100.7 A2457 19.219999313354492 0.1850000023841858 66.69999694824219 -4.5 1.0 16.100000381469727 0.05795188993215561 -12.849367141723633 10.36827564239502 -19.986000061035156 0.805999755859375 1.309999942779541 14.432079315185547 0.9834374189376831 0.7507155537605286
338.74173 1.350123 J223458.03+012100.7 A2457 19.219999313354492 0.1850000023841858 66.69999694824219 -4.5 1.0 16.100000381469727 0.05795188993215561 -12.849367141723633 10.36827564239502 -19.986000061035156 0.805999755859375 1.309999942779541 14.432079315185547 0.9834374189376831 0.7507155537605286
338.74173 1.350123 J223458.03+012100.7 A2457 19.219999313354492 0.1850000023841858 66.69999694824219 -4.5 1.0 16.100000381469727 0.05795188993215561 -12.849367141723633 10.36827564239502 -19.986000061035156 0.805999755859375 1.309999942779541 14.432079315185547 0.9834374189376831 0.7507155537605286
338.74173 1.350123 J223458.03+012100.7 A2457 19.219999313354492 0.1850000023841858 66.69999694824219 -4.5 1.0 16.100000381469727 0.05795188993215561 -12.849367141723633 10.36827564239502 -19.986000061035156 0.805999755859375 1.309999942779541 14.432079315185547 0.9834374189376831 0.7507155537605286
338.74173 1.350123 J223458.03+012100.7 A2457 19.219999313354492 0.1850000023841858 66.69999694824219 -4.5 1.0 16.100000381469727 0.05795188993215561 -12.849367141723633 10.36827564239502 -19.986000061035156 0.805999755859375 1.309999942779541 14.432079315185547 0.9834374189376831 0.7507155537605286
338.74173 1.350123 J223458.03+012100.7 A2457 19.219999313354492 0.1850000023841858 66.69999694824219 -4.5 1.0 16.100000381469727 0.05795188993215561 -12.849367141723633 10.36827564239502 -19.986000061035156 0.805999755859375 1.309999942779541 14.432079315185547 0.9834374189376831 0.7507155537605286
338.74173 1.350123 J223458.03+012100.7 A2457 19.219999313354492 0.1850000023841858 66.69999694824219 -4.5 1.0 16.100000381469727 0.05795188993215561 -12.849367141723633 10.36827564239502 -19.986000061035156 0.805999755859375 1.309999942779541 14.432079315185547 0.9834374189376831 0.7507155537605286
338.74173 1.350123 J223458.03+012100.7 A2457 19.219999313354492 0.1850000023841858 66.69999694824219 -4.5 1.0 16.100000381469727 0.05795188993215561 -12.849367141723633 10.36827564239502 -19.986000061035156 0.805999755859375 1.309999942779541 14.432079315185547 0.9834374189376831 0.7507155537605286
338.74173 1.350123 J223458.03+012100.7 A2457 19.219999313354492 0.1850000023841858 66.69999694824219 -4.5 1.0 16.100000381469727 0.05795188993215561 -12.849367141723633 10.36827564239502 -19.986000061035156 0.805999755859375 1.309999942779541 14.432079315185547 0.9834374189376831 0.7507155537605286
338.74173 1.350123 J223458.03+012100.7 A2457 19.219999313354492 0.1850000023841858 66.69999694824219 -4.5 1.0 16.100000381469727 0.05795188993215561 -12.849367141723633 10.36827564239502 -19.986000061035156 0.805999755859375 1.309999942779541 14.432079315185547 0.9834374189376831 0.7507155537605286
338.74173 1.350123 J223458.03+012100.7 A2457 19.219999313354492 0.1850000023841858 66.69999694824219 -4.5 1.0 16.100000381469727 0.05795188993215561 -12.849367141723633 10.36827564239502 -19.986000061035156 0.805999755859375 1.309999942779541 14.432079315185547 0.9834374189376831 0.7507155537605286
338.74173 1.350123 J223458.03+012100.7 A2457 19.219999313354492 0.1850000023841858 66.69999694824219 -4.5 1.0 16.100000381469727 0.05795188993215561 -12.849367141723633 10.36827564239502 -19.986000061035156 0.805999755859375 1.309999942779541 14.432079315185547 0.9834374189376831 0.7507155537605286
338.74173 1.350123 J223458.03+012100.7 A2457 19.219999313354492 0.1850000023841858 66.69999694824219 -4.5 1.0 16.100000381469727 0.05795188993215561 -12.849367141723633 10.36827564239502 -19.986000061035156 0.805999755859375 1.309999942779541 14.432079315185547 0.9834374189376831 0.7507155537605286
338.74173 1.350123 J223458.03+012100.7 A2457 19.219999313354492 0.1850000023841858 66.69999694824219 -4.5 1.0 16.100000381469727 0.05795188993215561 -12.849367141723633 10.36827564239502 -19.986000061035156 0.805999755859375 1.309999942779541 14.432079315185547 0.9834374189376831 0.7507155537605286
338.9367 1.352132 J223544.81+012107.9 A2457 20.39900016784668 0.08099997043609619 89.30000305175781 -4.699999809265137 1.0 1.3490688800811768 0.058649998158216476 -12.532468795776367 9.954261779785156 -18.99399757385254 1.069997787475586 1.309999942779541 14.432079315185547 0.589011549949646 0.4496271312236786
338.9709 1.3674423 J223553.04+012202.8 A2457 20.076000213623047 0.3410000205039978 72.30000305175781 -0.10000000149011612 0.0 1.2842789888381958 0.05177000164985657 -10.252999305725098 9.698650360107422 -19.586997985839844 0.6919956207275391 1.309999942779541 14.432079315185547 0.563288152217865 0.4299909472465515
338.87387 1.3621539 J223529.72+012144.0 A2457 21.03499984741211 0.23799997568130493 28.200000762939453 -1.600000023841858 1.0 36.829345703125 0.061794549226760864 -10.836036682128906 9.36014461517334 -17.881999969482422 0.5690021514892578 1.309999942779541 14.432079315185547 0.5767938494682312 0.4403006434440613
